{"learner":{"attributes":{"best_iteration":"12","best_score":"0.11951297025412454","scikit_learn":"{\"_estimator_type\": \"classifier\"}"},"feature_names":["fixed_acidity","volatile_acidity","residual_sugar","chlorides","free_sulfur_dioxide","ph","sulphates","alcohol"],"feature_types":["float","float","float","float","float","float","float","float"],"gradient_booster":{"model":{"cats":{"enc":[],"feature_segments":[],"sorted_idx":[]},"gbtree_model_param":{"num_parallel_tree":"1","num_trees":"33"},"iteration_indptr":[0,1,2,3,4,5,6,7,8,9,10,11,12,13,14,15,16,17,18,19,20,21,22,23,24,25,26,27,28,29,30,31,32,33],"tree_info":[0,0,0,0,0,0,0,0,0,0,0,0,0,0,0,0,0,0,0,0,0,0,0,0,0,0,0,0,0,0,0,0,0],"trees":[{"base_weights":[7.637968E-2,1.3556272E0,-3.042622E-1,8.9828156E-2,1.6785666E0,-7.5011176E-1,-8.81875E-2,6.868704E-1,-3.5478988E-1,1.8772593E0,-3.010423E-1,-8.023348E-1,-1.1782902E-1,6.6246934E-2,-4.6295416E-1,-2.8352842E-1,7.043793E-1,1.0769614E0,2.3669214E0,-5.6636162E-2,-8.3168364E-1,2.0516114E-1,-2.8352842E-1,-1.516947E-1,2.6423328E0,1.7892138E0,1.6086654E-1,2.7147093E0,-7.1032025E-2,-1.3137776E-1,-4.3041536E-1,3.2411423E-1,-6.650502E-1,2.2379788E-2,1.3859588E0,-4.140589E-1,3.9029342E-1,2.1157868E0,1.8637719E0,9.687961E-1,-1.594151E-1,-7.7786183E-1,4.77173E-1,-1.6245762E-2,-2.8725272E-1,2.4157552E-1,1.6748061E0,6.058227E-1,-2.8725272E-1,-3.6534804E-1,1.11010365E-1,3.6862612E-1,-4.4978625E-1],"categories":[],"categories_nodes":[],"categories_segments":[],"categories_sizes":[],"default_left":[0,0,0,0,0,0,0,0,0,0,0,0,0,0,0,0,0,0,0,0,0,0,0,0,0,0,0,0,0,0,0,0,0,0,0,0,0,0,0,0,0,0,0,0,0,0,0,0,0,0,0,0,0],"id":0,"left_children":[1,3,5,7,9,11,13,15,-1,17,-1,19,21,23,-1,-1,-1,25,27,-1,29,-1,-1,31,-1,33,35,37,-1,-1,-1,39,41,-1,-1,43,-1,-1,45,47,49,51,-1,-1,-1,-1,-1,-1,-1,-1,-1,-1,-1],"loss_changes":[5.4167244E1,1.0272442E1,8.208748E0,3.465422E0,1.0310627E1,8.2691E-1,7.692985E0,4.4920692E0,0E0,4.8488693E0,0E0,4.2360306E-1,1.0159125E0,5.850959E1,0E0,0E0,0E0,5.5852413E0,9.877171E0,0E0,1.7844772E-1,0E0,0E0,1.2350007E1,0E0,8.387501E0,2.1174645E0,4.5082397E0,0E0,0E0,0E0,8.400901E0,5.167774E0,0E0,0E0,1.8126762E-1,0E0,0E0,1.4667383E1,4.998374E0,3.6433625E0,4.9409485E0,0E0,0E0,0E0,0E0,0E0,0E0,0E0,0E0,0E0,0E0,0E0],"parents":[2147483647,0,0,1,1,2,2,3,3,4,4,5,5,6,6,7,7,9,9,11,11,12,12,13,13,17,17,18,18,20,20,23,23,25,25,26,26,27,27,31,31,32,32,35,35,38,38,39,39,40,40,41,41],"right_children":[2,4,6,8,10,12,14,16,-1,18,-1,20,22,24,-1,-1,-1,26,28,-1,30,-1,-1,32,-1,34,36,38,-1,-1,-1,40,42,-1,-1,44,-1,-1,46,48,50,52,-1,-1,-1,-1,-1,-1,-1,-1,-1,-1,-1],"split_conditions":[3.5E-2,1.6E0,2.8E1,3E1,8.2E0,1.28E1,1.43E1,1.5E1,-3.5478988E-1,2.85E1,-3.010423E-1,3.6E-2,5.1E-2,1.38E1,-4.6295416E-1,-2.8352842E-1,7.043793E-1,3E-2,9.4E0,-5.6636162E-2,8E0,2.0516114E-1,-2.8352842E-1,4.35E1,2.6423328E0,3.7E0,6.8E0,3.2E1,-7.1032025E-2,-1.3137776E-1,-4.3041536E-1,4.3E-2,7.95E1,2.2379788E-2,1.3859588E0,2.1E1,3.9029342E-1,2.1157868E0,4.25E1,7.9E0,6.7E0,3.7E-2,4.77173E-1,-1.6245762E-2,-2.8725272E-1,2.4157552E-1,1.6748061E0,6.058227E-1,-2.8725272E-1,-3.6534804E-1,1.11010365E-1,3.6862612E-1,-4.4978625E-1],"split_indices":[3,2,4,4,0,2,2,4,0,4,0,3,3,2,0,0,0,3,2,0,4,0,0,4,0,2,0,4,0,0,0,3,4,0,0,4,0,0,4,0,0,3,0,0,0,0,0,0,0,0,0,0,0],"split_type":[0,0,0,0,0,0,0,0,0,0,0,0,0,0,0,0,0,0,0,0,0,0,0,0,0,0,0,0,0,0,0,0,0,0,0,0,0,0,0,0,0,0,0,0,0,0,0,0,0,0,0,0,0],"sum_hessian":[1.0939411E2,2.4498617E1,8.48955E1,5.2395887E0,1.925903E1,2.6905996E1,5.7989502E1,3.0800285E0,2.1595602E0,1.7878326E1,1.3807024E0,2.4604824E1,2.3011706E0,4.974069E1,8.248812E0,1.2036893E0,1.8763392E0,8.000994E0,9.877333E0,1.2036893E0,2.3401136E1,1.0974814E0,1.2036893E0,4.867861E1,1.0620787E0,3.965094E0,4.035899E0,8.6028385E0,1.2744945E0,1.6285207E0,2.1772615E1,2.5454489E1,2.3224123E1,1.8055339E0,2.1595602E0,2.265768E0,1.7701313E0,1.6639234E0,6.938915E0,1.0479177E1,1.497531E1,2.2197447E1,1.0266762E0,1.0266762E0,1.2390919E0,4.2837176E0,2.655197E0,9.240086E0,1.2390919E0,5.6290174E0,9.346293E0,1.2744945E0,2.0922953E1],"tree_param":{"num_deleted":"0","num_feature":"8","num_nodes":"53","size_leaf_vector":"1"}},{"base_weights":[-2.2169486E-1,9.681924E-1,-2.9047033E-1,1.2292638E0,1.3815148E-1,-3.6255625E-1,4.982387E-1,-4.1185337E-1,7.5166565E-1,-4.5661293E-2,-4.9090472E-1,-4.2510608E-1,7.886395E-1,7.0165485E-1,-2.0884824E-1,-6.3309336E-1,-4.999216E-2,-2.928231E-1,-1.8894311E-2,1.1347259E0,2.3886679E-2,-9.366124E-2,7.395391E-1,3.9907518E-1,-4.2170724E-1,1.4799303E-1,-6.677792E-1,7.1762997E-1,-3.0612832E-1,-3.222829E-2,1.4040892E0,4.5437253E-1,-3.2797503E-1,1.8249583E-1,-3.1348896E-1,-1.7368908E-1,8.564668E-1,-1.880916E-1,-7.64487E-1,-5.313497E-1,-8.67204E-1,1.5179385E0,-3.5371968E-1,-4.781457E-1,3.4049103E-1,-3.5466067E-2,9.267585E-1,-4.121011E-1,2.8104508E-1,-4.0409687E-1,2.762367E-2,-3.765016E-2,-4.2727116E-1,-3.8809454E-1,-1.2491775E-1,-1.4461496E-1,-4.4839165E-1,-2.720278E-1,1.2392441E0,-5.212619E-2,-3.7043527E-1],"categories":[],"categories_nodes":[],"categories_segments":[],"categories_sizes":[],"default_left":[0,0,0,0,0,0,0,0,0,0,0,0,0,0,0,0,0,0,0,0,0,0,0,0,0,0,0,0,0,0,0,0,0,0,0,0,0,0,0,0,0,0,0,0,0,0,0,0,0,0,0,0,0,0,0,0,0,0,0,0,0],"id":1,"left_children":[1,3,5,-1,7,9,11,-1,-1,13,15,17,19,21,23,25,27,-1,-1,29,31,33,-1,35,37,-1,39,41,43,-1,45,-1,-1,-1,-1,47,-1,49,51,53,55,57,-1,59,-1,-1,-1,-1,-1,-1,-1,-1,-1,-1,-1,-1,-1,-1,-1,-1,-1],"loss_changes":[1.0976307E1,8.779724E0,7.2487555E0,0E0,8.846983E0,4.634098E0,3.239764E0,0E0,0E0,4.305738E0,5.070381E0,1.794216E-1,2.2465801E0,4.059741E0,3.8903081E0,2.1779633E0,4.3349605E0,0E0,0E0,1.9939303E0,2.8206253E0,1.2257007E0,0E0,6.297555E0,1.601126E0,0E0,1.159317E0,7.3872614E0,3.1094573E0,0E0,3.3504095E0,0E0,0E0,0E0,0E0,3.5554876E0,0E0,2.2001517E0,4.6353197E-1,2.4211102E0,1.2710762E-1,8.999257E0,0E0,1.3519564E0,0E0,0E0,0E0,0E0,0E0,0E0,0E0,0E0,0E0,0E0,0E0,0E0,0E0,0E0,0E0,0E0,0E0],"parents":[2147483647,0,0,1,1,2,2,4,4,5,5,6,6,9,9,10,10,11,11,12,12,13,13,14,14,15,15,16,16,19,19,20,20,21,21,23,23,24,24,26,26,27,27,28,28,30,30,35,35,37,37,38,38,39,39,40,40,41,41,43,43],"right_children":[2,4,6,-1,8,10,12,-1,-1,14,16,18,20,22,24,26,28,-1,-1,30,32,34,-1,36,38,-1,40,42,44,-1,46,-1,-1,-1,-1,48,-1,50,52,54,56,58,-1,60,-1,-1,-1,-1,-1,-1,-1,-1,-1,-1,-1,-1,-1,-1,-1,-1,-1],"split_conditions":[1.6E-1,2.2E1,4.2E-1,1.2292638E0,4.05E1,4.2E-1,1.9E1,-4.1185337E-1,7.5166565E-1,2E-1,5.9E-1,4.95E-1,3.55E1,1.9E-1,3.5E-1,5.6E0,6.1E-1,-2.928231E-1,-1.8894311E-2,3.9E-1,4.2E-1,3.95E1,7.395391E-1,3.25E-1,2.95E-1,1.4799303E-1,5.1E-1,7E0,7.8E0,-3.222829E-2,4.6E-1,4.5437253E-1,-3.2797503E-1,1.8249583E-1,-3.1348896E-1,3.3E-1,8.564668E-1,2.5E1,1.55E1,6.9E0,5.9E0,6.5E0,-3.5371968E-1,6.6E-1,3.4049103E-1,-3.5466067E-2,9.267585E-1,-4.121011E-1,2.8104508E-1,-4.0409687E-1,2.762367E-2,-3.765016E-2,-4.2727116E-1,-3.8809454E-1,-1.2491775E-1,-1.4461496E-1,-4.4839165E-1,-2.720278E-1,1.2392441E0,-5.212619E-2,-3.7043527E-1],"split_indices":[1,4,1,0,4,6,4,0,0,1,6,1,4,1,6,0,6,0,0,6,6,4,0,1,1,0,6,0,0,0,1,0,0,0,0,6,0,4,4,0,0,0,0,6,0,0,0,0,0,0,0,0,0,0,0,0,0,0,0,0,0],"split_type":[0,0,0,0,0,0,0,0,0,0,0,0,0,0,0,0,0,0,0,0,0,0,0,0,0,0,0,0,0,0,0,0,0,0,0,0,0,0,0,0,0,0,0,0,0,0,0,0,0,0,0,0,0,0,0,0,0,0,0,0,0],"sum_hessian":[1.2969064E2,6.3719363E0,1.233187E2,1.5775379E0,4.7943983E0,1.1348664E2,9.832059E0,3.0453687E0,1.7490296E0,3.3105145E1,8.03815E1,2.2414353E0,7.590624E0,5.3419476E0,2.7763199E1,6.0450966E1,1.9930532E1,1.2226138E0,1.0188215E0,4.8926773E0,2.6979465E0,3.0753453E0,2.2666025E0,6.9731402E0,2.0790058E1,1.9044989E0,5.8546467E1,4.5356765E0,1.5394856E1,1.0369539E0,3.8557231E0,1.0259218E0,1.6720247E0,1.8230982E0,1.2522471E0,5.460492E0,1.512648E0,1.3284774E1,7.5052843E0,3.693981E1,2.1606657E1,2.8627877E0,1.6728889E0,1.3549315E1,1.8455412E0,1.097127E0,2.7585962E0,2.8343906E0,2.6261017E0,3.0897858E0,1.0194988E1,1.0795693E0,6.425715E0,1.8817022E1,1.8122787E1,1.5766815E0,2.0029974E1,1.047576E0,1.8152119E0,6.168091E0,7.381224E0],"tree_param":{"num_deleted":"0","num_feature":"8","num_nodes":"61","size_leaf_vector":"1"}},{"base_weights":[-1.6218996E-1,-3.663437E-1,1.7922251E-1,6.10819E-1,-4.0779734E-1,-1.7129408E-1,4.0841177E-1,2.3060365E-1,-4.930846E-1,5.608945E-1,-3.608505E-1,-6.2934434E-1,6.010961E-1,8.3053535E-1,-5.147826E-1,-2.5844318E-1,-6.436638E-1,-6.843626E-1,6.875183E-2,-7.0418514E-2,-3.7800488E-1,9.381791E-1,-3.7701614E-2,-1.2138507E-1,1.2766312E0,-4.0243703E-1,9.8425075E-2,-3.8766998E-1,5.300469E-1,1.7167182E-1,-6.827117E-1,-4.7018743E-1,3.8677055E-2,8.8994014E-1,-5.450324E-1,1.3131747E0,3.3287817E-1,6.548904E-1,-3.8657287E-1,1.4827561E-1,9.5431936E-1,-6.8821436E-1,1.18154556E-1,-1.3513472E-2,4.7143295E-1,-1.15088806E-1,-7.488557E-1,-2.971408E-1,3.0522984E-1,4.8844546E-2,7.0418197E-1,-6.866524E-2,-6.300276E-1,1.673248E0,6.0308254E-1,-3.963526E-1,6.906003E-1,-3.6680676E-2,5.106338E-1,1.783579E-1,-5.906403E-1,-6.9659967E-3,-4.1689596E-1,2.0376256E-1,-3.4537637E-1,-2.8691536E-1,3.8595292E-1,-4.1705984E-1,-1.8895948E-1,-5.9636634E-2,-3.8693297E-1,1.0673075E0,1.9418399E-1,-7.4295625E-2,6.5272075E-1,-2.7199838E-1,-2.6221603E-2,5.954295E-1,4.0427133E-2,-4.1410044E-1,-2.4071945E-2],"categories":[],"categories_nodes":[],"categories_segments":[],"categories_sizes":[],"default_left":[0,0,0,0,0,0,0,0,0,0,0,0,0,0,0,0,0,0,0,0,0,0,0,0,0,0,0,0,0,0,0,0,0,0,0,0,0,0,0,0,0,0,0,0,0,0,0,0,0,0,0,0,0,0,0,0,0,0,0,0,0,0,0,0,0,0,0,0,0,0,0,0,0,0,0,0,0,0,0,0,0],"id":2,"left_children":[1,3,5,-1,7,9,11,13,15,-1,17,19,21,23,25,27,29,31,33,-1,-1,35,37,-1,39,-1,-1,41,43,-1,45,-1,47,49,51,53,55,57,59,-1,-1,61,63,-1,-1,65,67,-1,-1,-1,-1,-1,69,71,73,75,77,-1,-1,-1,79,-1,-1,-1,-1,-1,-1,-1,-1,-1,-1,-1,-1,-1,-1,-1,-1,-1,-1,-1,-1],"loss_changes":[8.5538E0,5.53648E0,3.7848082E0,0E0,4.2157993E0,5.05864E0,6.0282736E0,4.702716E0,2.1931305E0,0E0,2.4536197E0,1.9754553E-1,5.2769537E0,3.0293088E0,1.1659969E0,3.0355515E0,1.7762413E0,1.8816633E0,4.692184E0,0E0,0E0,3.1884594E0,2.5170856E0,0E0,2.018114E0,0E0,0E0,3.7969263E0,1.0220526E0,0E0,1.3712158E0,0E0,1.6538194E0,1.4848039E0,1.00494266E-1,1.425808E0,2.2170603E0,1.0113916E0,1.2511833E0,0E0,0E0,1.5077224E0,2.6135812E0,0E0,0E0,2.5721986E0,7.786007E-1,0E0,0E0,0E0,0E0,0E0,2.153101E-1,2.5827713E0,2.7110763E0,1.2822154E-1,1.5394709E0,0E0,0E0,0E0,7.0227623E-1,0E0,0E0,0E0,0E0,0E0,0E0,0E0,0E0,0E0,0E0,0E0,0E0,0E0,0E0,0E0,0E0,0E0,0E0,0E0,0E0],"parents":[2147483647,0,0,1,1,2,2,4,4,5,5,6,6,7,7,8,8,10,10,11,11,12,12,13,13,14,14,15,15,16,16,17,17,18,18,21,21,22,22,24,24,27,27,28,28,30,30,32,32,33,33,34,34,35,35,36,36,37,37,38,38,41,41,42,42,45,45,46,46,52,52,53,53,54,54,55,55,56,56,60,60],"right_children":[2,4,6,-1,8,10,12,14,16,-1,18,20,22,24,26,28,30,32,34,-1,-1,36,38,-1,40,-1,-1,42,44,-1,46,-1,48,50,52,54,56,58,60,-1,-1,62,64,-1,-1,66,68,-1,-1,-1,-1,-1,70,72,74,76,78,-1,-1,-1,80,-1,-1,-1,-1,-1,-1,-1,-1,-1,-1,-1,-1,-1,-1,-1,-1,-1,-1,-1,-1],"split_conditions":[3.24E0,1.25E-1,2.25E-1,6.10819E-1,3.5E-1,1.7E1,2.1E1,3.1E0,2.45E-1,5.608945E-1,3.85E1,4.1E-1,3.85E1,3.02E0,3.6E-1,2.4E-1,9E0,2.1E-1,4.35E1,-7.0418514E-2,-3.7800488E-1,3.15E-1,2.65E-1,-1.2138507E-1,3.5E1,-4.0243703E-1,9.8425075E-2,4.15E1,3.13E0,1.7167182E-1,3E0,-4.7018743E-1,3.3E0,5.9E-1,1.55E-1,5.1E-1,2.8E1,2.45E-1,3.9E-1,1.4827561E-1,9.5431936E-1,4E-1,5.4E1,-1.3513472E-2,4.7143295E-1,2.98E0,3.95E-1,-2.971408E-1,3.0522984E-1,4.8844546E-2,7.0418197E-1,-6.866524E-2,4.2E-1,2.75E-1,2.75E-1,5.1E-1,3E1,-3.6680676E-2,5.106338E-1,1.783579E-1,3.38E0,-6.9659967E-3,-4.1689596E-1,2.0376256E-1,-3.4537637E-1,-2.8691536E-1,3.8595292E-1,-4.1705984E-1,-1.8895948E-1,-5.9636634E-2,-3.8693297E-1,1.0673075E0,1.9418399E-1,-7.4295625E-2,6.5272075E-1,-2.7199838E-1,-2.6221603E-2,5.954295E-1,4.0427133E-2,-4.1410044E-1,-2.4071945E-2],"split_indices":[5,1,1,0,6,4,4,5,1,0,4,6,4,5,1,1,4,1,4,0,0,1,1,0,4,0,0,4,5,0,5,0,5,6,1,6,4,1,6,0,0,6,4,0,0,5,1,0,0,0,0,0,6,1,1,6,4,0,0,0,5,0,0,0,0,0,0,0,0,0,0,0,0,0,0,0,0,0,0,0,0],"split_type":[0,0,0,0,0,0,0,0,0,0,0,0,0,0,0,0,0,0,0,0,0,0,0,0,0,0,0,0,0,0,0,0,0,0,0,0,0,0,0,0,0,0,0,0,0,0,0,0,0,0,0,0,0,0,0,0,0,0,0,0,0,0,0,0,0,0,0,0,0,0,0,0,0,0,0,0,0,0,0,0,0],"sum_hessian":[1.2077998E2,7.553778E1,4.5242203E1,1.1974281E0,7.4340355E1,1.7986574E1,2.725563E1,8.560273E0,6.578008E1,1.6708298E0,1.6315744E1,3.9132922E0,2.3342339E1,4.6796083E0,3.8806648E0,2.6774614E1,3.9005466E1,8.968786E0,7.3469586E0,1.2405968E0,2.6726952E0,1.4972784E1,8.3695545E0,1.5077517E0,3.1718564E0,2.663774E0,1.2168907E0,2.3441149E1,3.3334658E0,1.1878369E0,3.781763E1,6.401552E0,2.5672333E0,2.9500852E0,4.3968735E0,8.5231E0,6.4496837E0,2.5098126E0,5.8597417E0,1.8195015E0,1.352355E0,1.4478135E1,8.963014E0,1.8166028E0,1.516863E0,4.2328506E0,3.3584778E1,1.1997601E0,1.3674734E0,1.6369483E0,1.3131368E0,1.2097471E0,3.1871264E0,4.755368E0,3.7677321E0,2.0870857E0,4.362598E0,1.1077305E0,1.4020821E0,1.1011001E0,4.7586412E0,2.7653518E0,1.1712784E1,6.966934E0,1.9960798E0,3.022642E0,1.2102088E0,2.629247E1,7.292308E0,1.1022773E0,2.084849E0,3.0123703E0,1.7429976E0,2.2008224E0,1.5669096E0,1.053153E0,1.0339328E0,1.8729322E0,2.4896655E0,2.9431713E0,1.8154701E0],"tree_param":{"num_deleted":"0","num_feature":"8","num_nodes":"81","size_leaf_vector":"1"}},{"base_weights":[-1.838514E-1,-6.568894E-1,3.0043906E-1,3.9599735E-1,-8.3087444E-1,-1.19336605E-1,7.1039855E-1,6.687223E-1,-3.0114287E-1,-9.575207E-1,-4.3518144E-1,-6.461068E-1,7.9949397E-1,4.2903912E-1,1.503522E0,-2.9610267E-1,6.857365E-1,-5.531225E-1,-1.0261894E0,1.3050956E-1,-8.215939E-1,-2.5041035E-1,-8.97616E-1,-1.6303538E-1,1.4304116E0,1.1234707E-1,1.1110243E0,1.1491894E0,2.0774014E-1,-3.315842E-1,1.5347132E-1,-4.4835603E-1,1.5377913E-1,-1.7832716E-1,-5.275985E-1,8.9838105E-1,-5.651939E-1,-4.6165478E-1,-3.053117E-2,-7.0781916E-1,2.5836688E-1,-4.833535E-1,-7.458354E-2,1.433139E-1,-5.0812113E-1,1.6805234E0,9.5388286E-2,3.1566715E-1,-4.403808E-1,4.416093E-1,1.1109838E0,3.9203155E-1,-3.0808225E-1,-5.4429274E-2,7.194972E-1,-3.62752E-1,-3.2706E-2,-4.2865673E-1,-3.420624E-2,3.219297E-1,-1.5571746E-1,-3.0362406E-1,-7.509644E-2,3.1946144E-1,2.0064752E0,-1.3539894E-2,8.350377E-1,-3.235663E-1,1.0257475E0,1.2930429E0,3.7173823E-1,2.2408083E-1,-2.3702544E-1,6.2212E-1,1.3686281E-1],"categories":[],"categories_nodes":[],"categories_segments":[],"categories_sizes":[],"default_left":[0,0,0,0,0,0,0,0,0,0,0,0,0,0,0,0,0,0,0,0,0,0,0,0,0,0,0,0,0,0,0,0,0,0,0,0,0,0,0,0,0,0,0,0,0,0,0,0,0,0,0,0,0,0,0,0,0,0,0,0,0,0,0,0,0,0,0,0,0,0,0,0,0,0,0],"id":3,"left_children":[1,3,5,7,9,11,13,15,-1,17,19,21,23,25,27,29,-1,31,33,35,37,39,41,43,45,47,49,-1,51,-1,-1,-1,-1,-1,-1,53,55,-1,-1,57,59,-1,-1,-1,61,63,-1,65,-1,67,-1,-1,-1,-1,-1,-1,-1,-1,-1,-1,-1,-1,-1,-1,69,71,-1,-1,73,-1,-1,-1,-1,-1,-1],"loss_changes":[2.629546E1,1.0943636E1,9.890106E0,2.8243275E0,2.0914574E0,1.4556759E1,5.8195887E0,5.464058E0,0E0,4.621315E-1,3.1605403E0,1.6652002E0,6.9237566E0,4.795852E0,6.9244175E0,1.0814884E0,0E0,2.5090344E0,2.1659851E-1,3.9971962E0,5.9623384E-1,2.2230835E0,4.3619347E-1,9.618374E-1,1.7745008E0,3.6441772E0,4.308035E0,0E0,2.302531E0,0E0,0E0,0E0,0E0,0E0,0E0,2.0576475E0,2.762959E-1,0E0,0E0,4.081862E-1,1.2730815E0,0E0,0E0,0E0,2.7182281E-2,5.8357143E-1,0E0,6.52085E0,0E0,4.2800217E0,0E0,0E0,0E0,0E0,0E0,0E0,0E0,0E0,0E0,0E0,0E0,0E0,0E0,0E0,7.990217E-1,2.9161458E0,0E0,0E0,3.3103514E-1,0E0,0E0,0E0,0E0,0E0,0E0],"parents":[2147483647,0,0,1,1,2,2,3,3,4,4,5,5,6,6,7,7,9,9,10,10,11,11,12,12,13,13,14,14,15,15,17,17,18,18,19,19,20,20,21,21,22,22,23,23,24,24,25,25,26,26,28,28,35,35,36,36,39,39,40,40,44,44,45,45,47,47,49,49,64,64,65,65,68,68],"right_children":[2,4,6,8,10,12,14,16,-1,18,20,22,24,26,28,30,-1,32,34,36,38,40,42,44,46,48,50,-1,52,-1,-1,-1,-1,-1,-1,54,56,-1,-1,58,60,-1,-1,-1,62,64,-1,66,-1,68,-1,-1,-1,-1,-1,-1,-1,-1,-1,-1,-1,-1,-1,-1,70,72,-1,-1,74,-1,-1,-1,-1,-1,-1],"split_conditions":[1.09E1,9E0,3.6E0,1.43E1,1.04E1,3.3E0,5.5E-1,1.39E1,-3.0114287E-1,3.9E-1,1.0533334E1,4.3E-1,4.8E-1,8.3E0,6.1E-1,4.7E-1,6.857365E-1,3.8E-1,1.2E0,4.9E-1,6.1E-1,3.8E-1,7.5E-1,4.1E-1,3.44E0,7.6E0,3.26E0,1.1491894E0,6.1E0,-3.315842E-1,1.5347132E-1,-4.4835603E-1,1.5377913E-1,-1.7832716E-1,-5.275985E-1,3.17E0,6E-1,-4.6165478E-1,-3.053117E-2,2.6E0,1.194E1,-4.833535E-1,-7.458354E-2,1.433139E-1,1.95E0,1.1433333E1,9.5388286E-2,6.9E0,-4.403808E-1,1.16E1,1.1109838E0,3.9203155E-1,-3.0808225E-1,-5.4429274E-2,7.194972E-1,-3.62752E-1,-3.2706E-2,-4.2865673E-1,-3.420624E-2,3.219297E-1,-1.5571746E-1,-3.0362406E-1,-7.509644E-2,3.1946144E-1,1.7E0,3.2E0,8.350377E-1,-3.235663E-1,1.06E1,1.2930429E0,3.7173823E-1,2.2408083E-1,-2.3702544E-1,6.2212E-1,1.3686281E-1],"split_indices":[7,7,2,2,7,5,6,2,0,6,7,6,6,2,6,6,0,6,2,6,6,6,6,6,5,2,5,0,2,0,0,0,0,0,0,5,6,0,0,2,7,0,0,0,2,7,0,2,0,7,0,0,0,0,0,0,0,0,0,0,0,0,0,0,2,5,0,0,2,0,0,0,0,0,0],"split_type":[0,0,0,0,0,0,0,0,0,0,0,0,0,0,0,0,0,0,0,0,0,0,0,0,0,0,0,0,0,0,0,0,0,0,0,0,0,0,0,0,0,0,0,0,0,0,0,0,0,0,0,0,0,0,0,0,0,0,0,0,0,0,0,0,0,0,0,0,0,0,0,0,0,0,0],"sum_hessian":[1.1292185E2,5.6944283E1,5.5977573E1,7.8944206E0,4.9049862E1,2.8007925E1,2.7969648E1,6.4597764E0,1.4346442E0,3.608164E1,1.2968222E1,1.7990625E1,1.00173E1,2.178308E1,6.1865683E0,2.9661384E0,3.493638E0,6.551861E0,2.9529778E1,5.5319467E0,7.4362755E0,7.7668166E0,1.0223809E1,4.25993E0,5.7573695E0,1.5670798E1,6.112281E0,3.3548827E0,2.8316858E0,1.7818505E0,1.1842878E0,4.652634E0,1.8992264E0,1.7783451E0,2.7751432E1,2.4911034E0,3.040843E0,6.370266E0,1.0660095E0,3.8838665E0,3.8829503E0,9.092817E0,1.130992E0,1.9232477E0,2.3366823E0,4.494823E0,1.2625467E0,1.35739355E1,2.096862E0,4.6861076E0,1.4261733E0,1.6946393E0,1.1370466E0,1.1489971E0,1.3421065E0,1.9603876E0,1.0804554E0,2.87167E0,1.0121965E0,2.2385294E0,1.6444209E0,1.2844065E0,1.0522759E0,1.7768755E0,2.7179475E0,1.1716168E1,1.857768E0,1.5986444E0,3.0874634E0,1.1449399E0,1.5730076E0,5.863912E0,5.852256E0,1.8852084E0,1.202255E0],"tree_param":{"num_deleted":"0","num_feature":"8","num_nodes":"75","size_leaf_vector":"1"}},{"base_weights":[-7.546316E-2,1.8646128E-1,-2.8312173E-1,-1.9918016E-1,7.1723235E-1,1.4120042E-1,-4.6116775E-1,-6.0975844E-1,3.0112696E-1,-2.76774E-1,1.0489241E0,-7.718003E-1,5.655189E-1,4.723312E-2,-6.160826E-1,-7.063839E-1,1.1035138E-1,6.292572E-2,6.476079E-1,-3.9272365E-1,2.3666053E-1,1.7102629E0,-1.5885223E-1,-3.863551E-2,-4.4728458E-1,1.2271541E0,-9.704183E-2,-3.4625587E-1,9.1376054E-1,-6.787662E-1,6.9580846E-2,-4.8789978E-2,-7.503937E-1,-2.4782662E-1,7.7203166E-1,1.5659165E-1,1.8991373E0,-5.2622026E-1,4.270723E-1,-4.6000447E-2,1.5249431E0,-6.341437E-1,3.0693686E-1,3.9879933E-1,-6.804882E-1,-4.857652E-1,-9.145677E-1,4.5251307E-1,-3.1786582E-1,-8.499755E-1,-3.4468633E-1,2.5797886E-1,-5.2692175E-1,5.700628E-1,-4.2425763E-2,2.063052E0,1.7228389E-1,1.9411607E-1,-4.3012992E-1,8.6985135E-1,2.2263335E-1,-3.9095932E-1,-7.389467E-2,3.439342E-1,-2.891491E-1,-4.564061E-1,-3.6841017E-1,-6.257364E-1,3.1312928E-1,-9.598514E-1,-1.2649503E-1,-4.6597454E-1,-8.298205E-2,1.4535007E-1,-3.5634255E-1,-3.8390332E-1,2.1552645E-1,1.2180582E0,4.6816993E-1,2.0225863E-1,-3.4056515E-1,-4.6374205E-2,-4.1766506E-1,-7.7570684E-2,3.1291908E-1,-5.213914E-1,-1.5926492E-1],"categories":[],"categories_nodes":[],"categories_segments":[],"categories_sizes":[],"default_left":[0,0,0,0,0,0,0,0,0,0,0,0,0,0,0,0,0,0,0,0,0,0,0,0,0,0,0,0,0,0,0,0,0,0,0,0,0,0,0,0,0,0,0,0,0,0,0,0,0,0,0,0,0,0,0,0,0,0,0,0,0,0,0,0,0,0,0,0,0,0,0,0,0,0,0,0,0,0,0,0,0,0,0,0,0,0,0],"id":4,"left_children":[1,3,5,7,9,11,13,15,17,19,21,23,25,27,29,31,-1,33,-1,-1,-1,35,37,-1,-1,39,41,43,-1,45,47,-1,49,51,53,-1,55,57,-1,-1,59,61,63,-1,65,67,69,-1,-1,71,73,-1,75,-1,-1,77,-1,-1,-1,-1,-1,-1,-1,-1,-1,-1,79,81,83,85,-1,-1,-1,-1,-1,-1,-1,-1,-1,-1,-1,-1,-1,-1,-1,-1,-1],"loss_changes":[5.7182217E0,9.694612E0,4.48445E0,5.8962765E0,6.8365145E0,7.4313207E0,3.2929134E0,1.408144E0,3.0453072E0,2.5691056E0,1.2329491E1,4.5541835E-1,5.7758384E0,8.063304E0,1.4154263E0,3.0770016E-1,0E0,2.7702458E0,0E0,0E0,0E0,2.0016117E0,2.7777038E0,0E0,0E0,2.705387E0,1.7946761E0,4.185339E0,0E0,8.873577E-1,2.6810265E0,0E0,2.3664856E-1,2.1678638E0,1.2981644E0,0E0,1.4475079E0,1.9254564E0,0E0,0E0,4.737835E-1,1.3539124E-1,2.044243E0,0E0,2.3742151E-1,2.2336884E0,1.1777592E-1,0E0,0E0,3.9726114E-1,1.2045887E0,0E0,1.9483244E0,0E0,0E0,8.554554E-1,0E0,0E0,0E0,0E0,0E0,0E0,0E0,0E0,0E0,0E0,1.4970243E0,1.692009E0,5.925163E-1,2.4798393E-1,0E0,0E0,0E0,0E0,0E0,0E0,0E0,0E0,0E0,0E0,0E0,0E0,0E0,0E0,0E0,0E0,0E0],"parents":[2147483647,0,0,1,1,2,2,3,3,4,4,5,5,6,6,7,7,8,8,9,9,10,10,11,11,12,12,13,13,14,14,15,15,17,17,21,21,22,22,25,25,26,26,27,27,29,29,30,30,32,32,33,33,34,34,36,36,37,37,40,40,41,41,42,42,44,44,45,45,46,46,49,49,50,50,52,52,55,55,66,66,67,67,68,68,69,69],"right_children":[2,4,6,8,10,12,14,16,18,20,22,24,26,28,30,32,-1,34,-1,-1,-1,36,38,-1,-1,40,42,44,-1,46,48,-1,50,52,54,-1,56,58,-1,-1,60,62,64,-1,66,68,70,-1,-1,72,74,-1,76,-1,-1,78,-1,-1,-1,-1,-1,-1,-1,-1,-1,-1,80,82,84,86,-1,-1,-1,-1,-1,-1,-1,-1,-1,-1,-1,-1,-1,-1,-1,-1,-1],"split_conditions":[4.5E0,1.95E0,2.25E-1,3.3E0,3.13E0,6.9E0,6.2E0,1.8E0,3.6E-1,3.55E1,3.55E1,1.55E-1,4.35E1,5.1E1,1.45E1,2.99E0,1.1035138E-1,4.05E1,6.476079E-1,-3.9272365E-1,2.3666053E-1,1.9E1,4.1E0,-3.863551E-2,-4.4728458E-1,3.06E0,1.39E1,3.09E0,9.1376054E-1,3.85E1,1.6E1,-4.8789978E-2,3.8E1,3.32E0,4.85E1,1.5659165E-1,4.7E-1,2.4E0,4.270723E-1,-4.6000447E-2,3.25E0,5.15E1,2.05E-1,3.9879933E-1,3.21E0,3.7E1,3.95E-1,4.5251307E-1,-3.1786582E-1,3.26E0,4.25E1,2.5797886E-1,2.75E-1,5.700628E-1,-4.2425763E-2,3.37E0,1.7228389E-1,1.9411607E-1,-4.3012992E-1,8.6985135E-1,2.2263335E-1,-3.9095932E-1,-7.389467E-2,3.439342E-1,-2.891491E-1,-4.564061E-1,3.25E0,7.7E0,8E0,3.33E0,-1.2649503E-1,-4.6597454E-1,-8.298205E-2,1.4535007E-1,-3.5634255E-1,-3.8390332E-1,2.1552645E-1,1.2180582E0,4.6816993E-1,2.0225863E-1,-3.4056515E-1,-4.6374205E-2,-4.1766506E-1,-7.7570684E-2,3.1291908E-1,-5.213914E-1,-1.5926492E-1],"split_indices":[2,2,1,5,5,2,2,2,1,4,4,1,4,4,2,5,0,4,0,0,0,4,2,0,0,5,2,5,0,4,2,0,4,5,4,0,1,2,0,0,5,4,1,0,5,4,1,0,0,5,4,0,1,0,0,5,0,0,0,0,0,0,0,0,0,0,5,2,2,5,0,0,0,0,0,0,0,0,0,0,0,0,0,0,0,0,0],"split_type":[0,0,0,0,0,0,0,0,0,0,0,0,0,0,0,0,0,0,0,0,0,0,0,0,0,0,0,0,0,0,0,0,0,0,0,0,0,0,0,0,0,0,0,0,0,0,0,0,0,0,0,0,0,0,0,0,0,0,0,0,0,0,0,0,0,0,0,0,0,0,0,0,0,0,0,0,0,0,0,0,0,0,0,0,0,0,0],"sum_hessian":[1.03161446E2,4.56651E1,5.749634E1,2.6810312E1,1.885479E1,1.705575E1,4.0440594E1,1.4605502E1,1.2204809E1,4.7589245E0,1.4095865E1,5.1517906E0,1.1903959E1,9.607085E0,3.0833508E1,1.3217081E1,1.3884208E0,1.0703388E1,1.501421E0,2.8077393E0,1.9511851E0,8.839565E0,5.256299E0,1.0186242E0,4.1331663E0,5.529773E0,6.374186E0,8.527742E0,1.0793426E0,2.8260029E1,2.57348E0,1.1079278E0,1.2109154E1,7.8943477E0,2.809041E0,1.3692865E0,7.470279E0,4.2100396E0,1.0462594E0,1.145676E0,4.384097E0,2.4916785E0,3.8825076E0,1.6148452E0,6.9128976E0,1.7223139E1,1.1036889E1,1.048441E0,1.5250387E0,8.843459E0,3.2656944E0,1.8855593E0,6.008788E0,1.7337283E0,1.0753127E0,6.4618497E0,1.0084295E0,1.0830084E0,3.1270313E0,3.1468375E0,1.2372595E0,1.444933E0,1.0467454E0,2.870316E0,1.0121915E0,2.8593385E0,4.053559E0,1.4839852E1,2.3832867E0,9.907864E0,1.1290253E0,7.5733724E0,1.2700866E0,1.2747549E0,1.9909395E0,4.9600763E0,1.048712E0,3.9814196E0,2.4804301E0,1.08307E0,2.9704888E0,4.595698E0,1.0244155E1,1.1560386E0,1.2272481E0,8.219042E0,1.688822E0],"tree_param":{"num_deleted":"0","num_feature":"8","num_nodes":"87","size_leaf_vector":"1"}},{"base_weights":[-7.1373045E-2,-7.7418655E-1,-1.2340468E-2,-4.4578025E-1,-1.4580996E-1,6.5545246E-2,-3.8112104E-1,1.7764907E-1,-2.6066378E-1,-4.3766043E-1,1.1669811E-2,5.6985583E-2,8.910902E-1,-5.903589E-1,4.935405E-1,4.163967E-1,-5.935258E-1,-7.1883105E-2,8.086079E-1,1.1263662E-1,1.6290604E0,1.1718747E-1,-6.8701047E-1,-2.9905462E-1,7.9192686E-1,5.112756E-1,-2.9988426E-1,-4.151465E-2,-3.6829266E-1,-1.4123242E-1,4.2474875E-1,8.294801E-1,2.2080413E-1,4.5001194E-1,-5.200504E-1,1.1165854E0,2.7362514E-1,-4.5863277E-1,-4.4994676E-1,6.1429983E-1,2.2158822E-1,-3.5921657E-1,2.2267239E-1,-2.6388404E-1,3.4549043E-2,-3.1849638E-2,3.8722286E-1,-5.0433505E-2,-3.3553284E-1,1.8574253E-1,-3.108197E-1,3.2531267E-1,-1.2901069E-1],"categories":[],"categories_nodes":[],"categories_segments":[],"categories_sizes":[],"default_left":[0,0,0,0,0,0,0,0,0,0,0,0,0,0,0,0,0,0,0,0,0,0,0,0,0,0,0,0,0,0,0,0,0,0,0,0,0,0,0,0,0,0,0,0,0,0,0,0,0,0,0,0,0],"id":5,"left_children":[1,3,5,-1,-1,7,9,11,13,-1,15,17,19,21,23,25,27,29,31,33,35,-1,37,-1,39,-1,41,-1,-1,43,-1,-1,45,-1,47,-1,-1,-1,49,-1,51,-1,-1,-1,-1,-1,-1,-1,-1,-1,-1,-1,-1],"loss_changes":[4.179968E0,1.8227148E-1,2.729831E0,0E0,0E0,2.9207835E0,3.226243E0,5.0364447E0,5.3911138E0,0E0,2.7498412E0,5.057492E0,4.688302E0,1.3348618E0,2.683117E0,3.2202406E0,2.679968E-1,2.9939523E0,3.4504123E0,3.0591824E0,1.5744495E0,0E0,3.2067013E-1,0E0,1.1616096E0,0E0,1.5205493E0,0E0,0E0,3.5069497E0,0E0,0E0,9.421886E-1,0E0,1.549955E-1,0E0,0E0,0E0,1.4413966E0,0E0,9.32637E-1,0E0,0E0,0E0,0E0,0E0,0E0,0E0,0E0,0E0,0E0,0E0,0E0],"parents":[2147483647,0,0,1,1,2,2,5,5,6,6,7,7,8,8,10,10,11,11,12,12,13,13,14,14,15,15,16,16,17,17,18,18,19,19,20,20,22,22,24,24,26,26,29,29,32,32,34,34,38,38,40,40],"right_children":[2,4,6,-1,-1,8,10,12,14,-1,16,18,20,22,24,26,28,30,32,34,36,-1,38,-1,40,-1,42,-1,-1,44,-1,-1,46,-1,48,-1,-1,-1,50,-1,52,-1,-1,-1,-1,-1,-1,-1,-1,-1,-1,-1,-1],"split_conditions":[1.5E1,1.3E1,5E-2,-4.4578025E-1,-1.4580996E-1,7.15E0,5.5E-2,7E0,3.21E0,-4.3766043E-1,3.18E0,5.4E1,3.9E-2,2.1E1,7.3E0,5.8E-2,3.25E0,3.53E0,3.2E-2,2.8E-2,3.55E1,1.1718747E-1,3.4E1,-2.9905462E-1,3.27E0,5.112756E-1,9.7E-2,-4.151465E-2,-3.6829266E-1,6.2E0,4.2474875E-1,8.294801E-1,8.1E1,4.5001194E-1,2.85E1,1.1165854E0,2.7362514E-1,-4.5863277E-1,3.7E1,6.1429983E-1,7.5E0,-3.5921657E-1,2.2267239E-1,-2.6388404E-1,3.4549043E-2,-3.1849638E-2,3.8722286E-1,-5.0433505E-2,-3.3553284E-1,1.8574253E-1,-3.108197E-1,3.2531267E-1,-1.2901069E-1],"split_indices":[4,4,3,0,0,0,3,0,5,0,5,4,3,4,0,3,5,5,3,3,4,0,4,0,5,0,3,0,0,0,0,0,4,0,4,0,0,0,4,0,0,0,0,0,0,0,0,0,0,0,0,0,0],"split_type":[0,0,0,0,0,0,0,0,0,0,0,0,0,0,0,0,0,0,0,0,0,0,0,0,0,0,0,0,0,0,0,0,0,0,0,0,0,0,0,0,0,0,0,0,0,0,0,0,0,0,0,0,0],"sum_hessian":[9.997936E1,6.808312E0,9.317105E1,4.794592E0,2.0137203E0,7.760359E1,1.5567458E1,5.809447E1,1.9509125E1,6.3498135E0,9.217645E0,5.0614048E1,7.480422E0,1.3726098E1,5.7830257E0,5.7106137E0,3.5070312E0,4.3978176E1,6.635874E0,4.201289E0,3.2791328E0,1.2903669E0,1.2435731E1,1.0257671E0,4.757259E0,2.8614883E0,2.8491251E0,1.1136047E0,2.3934264E0,4.168723E1,2.2909455E0,1.9674046E0,4.6684694E0,1.6835487E0,2.5177405E0,1.4212047E0,1.857928E0,4.8529162E0,7.582815E0,2.0406797E0,2.7165792E0,1.8474716E0,1.0016536E0,1.4158381E1,2.7528849E1,3.6683402E0,1.000129E0,1.1085603E0,1.4091802E0,1.109751E0,6.4730644E0,1.2456785E0,1.4709007E0],"tree_param":{"num_deleted":"0","num_feature":"8","num_nodes":"53","size_leaf_vector":"1"}},{"base_weights":[-1.4560537E-1,-4.7664562E-1,2.5487202E-1,-3.1285998E-1,-4.847262E-1,1.610864E-1,1.1500015E0,5.015654E-1,-3.8650033E-1,8.2534984E-2,9.4251496E-1,4.4798087E-2,8.302243E-1,-2.714096E-1,5.5415916E-1,-5.0850207E-1,-6.4984664E-2,-3.4190735E-3,1.0586873E0,7.385218E-1,8.923866E-3,1.14754885E-1,-6.3313204E-1,1.3361074E-1,-3.448789E-1,-3.7974313E-1,5.129636E-2,1.5359858E-1,6.471437E-1,3.157383E-1,-3.4267616E-1,-4.209371E-2,-7.548672E-1,-1.0975116E-1,5.585332E-1,4.2524365E-1,-1.0278739E-1,2.2391574E-1,-2.3610519E-1,-4.6368125E-1,-1.164721E-1,9.929558E-2,-3.843483E-1,4.9086285E-1,-2.642568E-2,-4.60975E-1,1.760457E-2],"categories":[],"categories_nodes":[],"categories_segments":[],"categories_sizes":[],"default_left":[0,0,0,0,0,0,0,0,0,0,0,0,0,0,0,0,0,0,0,0,0,0,0,0,0,0,0,0,0,0,0,0,0,0,0,0,0,0,0,0,0,0,0,0,0,0,0],"id":6,"left_children":[1,3,5,7,-1,9,11,13,15,17,19,-1,-1,-1,-1,21,23,25,27,-1,-1,29,31,33,-1,-1,35,-1,-1,-1,-1,37,39,41,-1,43,45,-1,-1,-1,-1,-1,-1,-1,-1,-1,-1],"loss_changes":[1.2801024E1,3.951023E0,3.5029316E0,2.6550155E0,0E0,2.4345484E0,2.0182843E0,3.033739E0,1.4653163E0,3.2160454E0,1.7740111E0,0E0,0E0,0E0,0E0,2.2122188E0,1.5381683E0,1.5358843E0,1.5155625E-1,0E0,0E0,2.6804786E0,1.6308403E0,2.4395814E0,0E0,0E0,2.041938E0,0E0,0E0,0E0,0E0,1.2662904E0,1.5037336E0,1.9144464E0,0E0,2.7960815E0,2.8998022E0,0E0,0E0,0E0,0E0,0E0,0E0,0E0,0E0,0E0,0E0],"parents":[2147483647,0,0,1,1,2,2,3,3,5,5,6,6,7,7,8,8,9,9,10,10,15,15,16,16,17,17,18,18,21,21,22,22,23,23,26,26,31,31,32,32,33,33,35,35,36,36],"right_children":[2,4,6,8,-1,10,12,14,16,18,20,-1,-1,-1,-1,22,24,26,28,-1,-1,30,32,34,-1,-1,36,-1,-1,-1,-1,38,40,42,-1,44,46,-1,-1,-1,-1,-1,-1,-1,-1,-1,-1],"split_conditions":[1.15E1,2.95E-1,5.6E1,1.55E1,-4.847262E-1,4.95E-1,1.205E1,1.4E1,1.1E1,4.5E-2,5.55E-1,4.4798087E-2,8.302243E-1,-2.714096E-1,5.5415916E-1,9E0,4.3E-2,2E-2,2.85E-1,7.385218E-1,8.923866E-3,2.05E-1,1.55E-1,4.2E-2,-3.448789E-1,-3.7974313E-1,2.9E-2,1.5359858E-1,6.471437E-1,3.157383E-1,-3.4267616E-1,4E-2,2.6E-1,2.45E-1,5.585332E-1,1.25E1,3E-2,2.2391574E-1,-2.3610519E-1,-4.6368125E-1,-1.164721E-1,9.929558E-2,-3.843483E-1,4.9086285E-1,-2.642568E-2,-4.60975E-1,1.760457E-2],"split_indices":[7,1,4,4,0,1,7,4,7,3,1,0,0,0,0,7,3,3,1,0,0,1,1,3,0,0,3,0,0,0,0,3,1,1,0,7,3,0,0,0,0,0,0,0,0,0,0],"split_type":[0,0,0,0,0,0,0,0,0,0,0,0,0,0,0,0,0,0,0,0,0,0,0,0,0,0,0,0,0,0,0,0,0,0,0,0,0,0,0,0,0,0,0,0,0,0,0],"sum_hessian":[9.464113E1,5.1708202E1,4.2932926E1,4.003674E1,1.1671464E1,3.9929356E1,3.0035696E0,2.838072E0,3.719867E1,3.72868E1,2.6425545E0,1.357993E0,1.6455766E0,1.0816436E0,1.7564286E0,2.6544546E1,1.065412E1,3.5185112E1,2.10169E0,1.2959925E0,1.3465619E0,4.436663E0,2.2107883E1,8.680889E0,1.9732317E0,1.5052096E0,3.36799E1,1.0515305E0,1.0501597E0,2.8237813E0,1.6128819E0,4.00567E0,1.8102213E1,7.6710463E0,1.009843E0,9.314539E0,2.4365362E1,1.8533838E0,2.152286E0,1.3021722E1,5.0804915E0,5.7016697E0,1.9693766E0,3.8176024E0,5.496937E0,2.6937864E0,2.1671576E1],"tree_param":{"num_deleted":"0","num_feature":"8","num_nodes":"47","size_leaf_vector":"1"}},{"base_weights":[-7.3686674E-2,-6.838522E-1,1.0819452E-1,1.2327261E-1,-7.6768225E-1,1.576222E-2,6.260915E-1,-2.0914753E-1,-4.5553184E-1,-2.0383148E-1,4.034818E-1,8.5600686E-1,2.4499272E-1,1.5657786E-1,-3.5191104E-1,3.749629E-1,-2.9660696E-1,1.7671666E-1,6.61991E-1,6.251259E-1,-4.9203333E-1,-2.832835E-1,4.7821176E-1,-4.269998E-1,-1.5958461E-1,3.0059823E-1,-4.1351375E-1,-2.7481842E-1,9.896557E-1,-3.1223768E-1,-4.7126364E-2,2.420418E-2,-2.7341536E-1,2.9367498E-1,-4.5334238E-1,4.5214646E-2,8.424277E-1,7.7589196E-1,3.9313745E-1,2.6530537E-1,-3.2985198E-1,-2.7478442E-1,1.550855E-1,-3.2888737E-1,9.291307E-2,5.375112E-1,1.3330288E-1,-1.3536711E-1,4.78133E-1],"categories":[],"categories_nodes":[],"categories_segments":[],"categories_sizes":[],"default_left":[0,0,0,0,0,0,0,0,0,0,0,0,0,0,0,0,0,0,0,0,0,0,0,0,0,0,0,0,0,0,0,0,0,0,0,0,0,0,0,0,0,0,0,0,0,0,0,0,0],"id":7,"left_children":[1,3,5,-1,7,9,11,13,-1,15,17,-1,19,-1,-1,21,23,25,-1,27,29,31,-1,-1,33,35,-1,-1,37,-1,-1,-1,-1,39,41,43,45,-1,47,-1,-1,-1,-1,-1,-1,-1,-1,-1,-1],"loss_changes":[9.719022E0,1.7565107E0,3.2364933E0,0E0,1.3051157E0,5.0690246E0,3.820241E0,1.5414517E0,0E0,2.1548066E0,4.2567787E0,0E0,2.7591379E0,0E0,0E0,2.4522567E0,2.4114404E0,2.5384896E0,0E0,3.204705E0,1.274814E-1,3.2758301E-1,0E0,0E0,3.8620386E0,2.3316832E0,0E0,0E0,1.0997152E0,0E0,0E0,0E0,0E0,2.9748406E0,1.4477963E0,1.3772459E0,4.405775E-1,0E0,1.6844071E0,0E0,0E0,0E0,0E0,0E0,0E0,0E0,0E0,0E0,0E0],"parents":[2147483647,0,0,1,1,2,2,4,4,5,5,6,6,7,7,9,9,10,10,12,12,15,15,16,16,17,17,19,19,20,20,21,21,24,24,25,25,28,28,33,33,34,34,35,35,36,36,38,38],"right_children":[2,4,6,-1,8,10,12,14,-1,16,18,-1,20,-1,-1,22,24,26,-1,28,30,32,-1,-1,34,36,-1,-1,38,-1,-1,-1,-1,40,42,44,46,-1,48,-1,-1,-1,-1,-1,-1,-1,-1,-1,-1],"split_conditions":[1.04E1,1.25E-1,4.4E-2,1.2327261E-1,9E0,1.24E1,1.75E-1,2.05E-1,-4.5553184E-1,1.6E-1,3.7E-2,8.5600686E-1,5E-2,1.5657786E-1,-3.5191104E-1,1.5E-1,2.05E-1,3.6E-2,6.61991E-1,2.25E-1,5.6E-1,5.2E-1,4.7821176E-1,-4.269998E-1,1.1333333E1,5.7E-1,-4.1351375E-1,-2.7481842E-1,1.0933333E1,-3.1223768E-1,-4.7126364E-2,2.420418E-2,-2.7341536E-1,2.95E-1,4.1E-2,2.15E-1,3.25E-1,7.7589196E-1,3.25E-1,2.6530537E-1,-3.2985198E-1,-2.7478442E-1,1.550855E-1,-3.2888737E-1,9.291307E-2,5.375112E-1,1.3330288E-1,-1.3536711E-1,4.78133E-1],"split_indices":[7,1,3,0,7,7,1,1,0,1,3,0,3,0,0,1,1,3,0,1,6,6,0,0,7,6,0,0,7,0,0,0,0,1,3,1,1,0,1,0,0,0,0,0,0,0,0,0,0],"split_type":[0,0,0,0,0,0,0,0,0,0,0,0,0,0,0,0,0,0,0,0,0,0,0,0,0,0,0,0,0,0,0,0,0,0,0,0,0,0,0,0,0,0,0,0,0,0,0,0,0],"sum_hessian":[8.59097E1,1.9094059E1,6.6815636E1,1.41777E0,1.7676289E1,5.7571014E1,9.244622E0,4.112998E0,1.3563292E1,3.7057148E1,2.0513866E1,1.4943204E0,7.750302E0,2.1791177E0,1.9338804E0,4.6991496E0,3.2357998E1,1.7415531E1,3.0983362E0,5.2132897E0,2.5370123E0,2.4445677E0,2.254582E0,5.352407E0,2.700559E1,1.6125814E1,1.2897164E0,1.114338E0,4.098952E0,1.4757566E0,1.0612558E0,1.443786E0,1.0007817E0,1.0619813E1,1.6385777E1,1.1696353E1,4.429461E0,1.2858394E0,2.8131123E0,8.86108E0,1.7587328E0,1.4800647E1,1.585131E0,1.336507E0,1.0359846E1,2.5375283E0,1.891933E0,1.5293705E0,1.2837416E0],"tree_param":{"num_deleted":"0","num_feature":"8","num_nodes":"49","size_leaf_vector":"1"}},{"base_weights":[-4.617918E-2,-4.7593296E-1,4.6206947E-2,1.9104825E-1,-6.941349E-1,-4.3214473E-1,1.0773154E-1,-2.3022163E-1,3.3278954E-1,-2.2163059E-1,-4.5180705E-1,-4.3753248E-1,-9.955526E-2,4.0384075E-1,-5.7267446E-2,-3.657626E-1,2.5971252E-1,3.4701073E-1,-3.758286E-1,8.725435E-1,1.6483699E-1,-5.528063E-1,1.06227666E-1,4.6117884E-1,-1.8392543E-1,2.8318122E-1,1.4863422E0,-1.838424E-1,8.414507E-1,-7.228445E-1,-1.21674314E-1,7.49617E-1,-7.6698706E-2,5.3054184E-1,-1.4666915E-1,9.465985E-1,1.2820658E-1,2.731761E-1,-3.298229E-1,8.4735066E-2,5.8970124E-1,-2.779892E-2,-4.3468532E-1,1.524539E-1,-2.9981753E-1,-9.0402424E-2,1.2095586E0,-4.231418E-1,3.3316973E-1,4.737343E-1,-9.458217E-2,-2.5158265E-1,1.7245688E-1,2.2270367E-1,-2.9768026E-1,9.599417E-2,9.937638E-1,-3.2575923E-1,6.4438004E-3,-2.8151116E-1,2.6496243E-1],"categories":[],"categories_nodes":[],"categories_segments":[],"categories_sizes":[],"default_left":[0,0,0,0,0,0,0,0,0,0,0,0,0,0,0,0,0,0,0,0,0,0,0,0,0,0,0,0,0,0,0,0,0,0,0,0,0,0,0,0,0,0,0,0,0,0,0,0,0,0,0,0,0,0,0,0,0,0,0,0,0],"id":8,"left_children":[1,3,5,7,9,11,13,-1,-1,15,-1,-1,17,19,21,-1,-1,23,-1,25,27,29,31,-1,-1,33,35,37,39,41,43,45,47,49,-1,-1,-1,-1,51,-1,-1,-1,-1,-1,-1,53,55,57,59,-1,-1,-1,-1,-1,-1,-1,-1,-1,-1,-1,-1],"loss_changes":[3.3695352E0,2.316653E0,2.1157248E0,1.6925237E0,9.403143E-1,1.1225674E0,3.1058252E0,0E0,0E0,2.2180817E0,0E0,0E0,1.955193E0,2.399258E0,3.4123657E0,0E0,0E0,2.0410607E0,0E0,2.2682767E0,3.992638E0,6.766794E-1,3.8193638E0,0E0,0E0,8.7262845E-1,1.2189565E0,1.4120275E0,1.0972276E0,6.631999E-1,1.0294939E0,2.879066E0,3.8037226E0,1.341762E0,0E0,0E0,0E0,0E0,1.3729093E0,0E0,0E0,0E0,0E0,0E0,0E0,1.2031734E0,3.3406272E0,1.4442701E0,2.4804897E0,0E0,0E0,0E0,0E0,0E0,0E0,0E0,0E0,0E0,0E0,0E0,0E0],"parents":[2147483647,0,0,1,1,2,2,3,3,4,4,5,5,6,6,9,9,12,12,13,13,14,14,17,17,19,19,20,20,21,21,22,22,25,25,26,26,27,27,28,28,29,29,30,30,31,31,32,32,33,33,38,38,45,45,46,46,47,47,48,48],"right_children":[2,4,6,8,10,12,14,-1,-1,16,-1,-1,18,20,22,-1,-1,24,-1,26,28,30,32,-1,-1,34,36,38,40,42,44,46,48,50,-1,-1,-1,-1,52,-1,-1,-1,-1,-1,-1,54,56,58,60,-1,-1,-1,-1,-1,-1,-1,-1,-1,-1,-1,-1],"split_conditions":[1.04E1,9E0,2.6E-2,5.6E-2,4.1E-2,6.6E0,4.1E-1,-2.3022163E-1,3.3278954E-1,3.9E-2,-4.5180705E-1,-4.3753248E-1,7.15E0,6.3E0,4.7E-1,-3.657626E-1,2.5971252E-1,1.25E1,-3.758286E-1,1.275E1,4E-2,7E0,5.1E-1,4.6117884E-1,-1.8392543E-1,1.2333333E1,3.7E-1,2.8E-2,3.7E-1,1.105E1,4.1E-2,6.7E0,1.21E1,3.4E-2,-1.4666915E-1,9.465985E-1,1.2820658E-1,2.731761E-1,8E0,8.4735066E-2,5.8970124E-1,-2.779892E-2,-4.3468532E-1,1.524539E-1,-2.9981753E-1,1.1266666E1,3.9E-2,6.3E-1,2.9E-2,4.737343E-1,-9.458217E-2,-2.5158265E-1,1.7245688E-1,2.2270367E-1,-2.9768026E-1,9.599417E-2,9.937638E-1,-3.2575923E-1,6.4438004E-3,-2.8151116E-1,2.6496243E-1],"split_indices":[7,7,3,3,3,0,6,0,0,3,0,0,0,0,6,0,0,7,0,7,3,0,6,0,0,7,6,3,6,7,3,0,7,3,0,0,0,0,0,0,0,0,0,0,0,7,3,6,3,0,0,0,0,0,0,0,0,0,0,0,0],"split_type":[0,0,0,0,0,0,0,0,0,0,0,0,0,0,0,0,0,0,0,0,0,0,0,0,0,0,0,0,0,0,0,0,0,0,0,0,0,0,0,0,0,0,0,0,0,0,0,0,0,0,0,0,0,0,0,0,0,0,0,0,0],"sum_hessian":[8.331402E1,1.4006806E1,6.930721E1,3.4834216E0,1.0523385E1,7.211797E0,6.2095417E1,1.4805021E0,2.0029194E0,3.8645217E0,6.658863E0,2.3933837E0,4.8184133E0,2.1701715E1,4.03937E1,2.2969387E0,1.5675831E0,3.1376069E0,1.6808066E0,6.433814E0,1.5267901E1,9.430259E0,3.096344E1,1.5776197E0,1.5599871E0,4.0277624E0,2.4060516E0,1.0556243E1,4.711659E0,6.2777133E0,3.1525455E0,6.168755E0,2.4794685E1,2.874279E0,1.1534833E0,1.4027538E0,1.0032978E0,1.301833E0,9.25441E0,2.0790854E0,2.6325736E0,1.3787299E0,4.8989835E0,1.8571216E0,1.295424E0,2.4668484E0,3.701907E0,1.3419451E1,1.1375235E1,1.6195852E0,1.2546937E0,7.565168E0,1.6892416E0,1.2540796E0,1.2127687E0,2.1441615E0,1.5577456E0,8.482443E0,4.9370084E0,1.71268E0,9.662555E0],"tree_param":{"num_deleted":"0","num_feature":"8","num_nodes":"61","size_leaf_vector":"1"}},{"base_weights":[-7.275256E-2,-2.094555E-1,1.2771675E-1,-3.41591E-1,2.4631536E-1,-7.361037E-2,6.0813075E-1,1.17991585E-2,-5.6139815E-1,-4.4414407E-1,5.7383764E-1,3.7576035E-2,-5.835406E-1,8.733669E-1,-1.6039744E-1,-1.5815613E-1,5.4226106E-1,-6.244229E-1,2.0429881E-1,-5.342263E-2,-3.2203102E-1,8.708895E-1,-1.6158786E-1,-2.179502E-1,2.6829833E-1,-3.8340044E-1,7.89582E-3,1.3007796E0,6.016688E-2,3.8980162E-1,-3.687181E-1,-4.2494267E-2,-7.216323E-1,1.0734497E0,-3.1526566E-2,-3.006863E-1,1.7957811E-1,3.4932896E-1,-3.98085E-1,-9.267713E-2,6.76347E-1,8.6250216E-1,6.264983E-1,-1.259617E-1,1.6658174E-1,-1.5300675E-1,4.242289E-1,-5.6288105E-1,1.5341707E-1,-3.3576262E-1,3.512315E-1,-4.6461627E-1,-4.395926E-1,5.826994E-2,6.892866E-1,-5.619016E-2,3.1860605E-1,-4.989021E-3,-6.056649E-1,2.3435897E-1,-3.421709E-1,4.9560526E-1,2.7168053E-1,-1.1925129E-1,6.3555145E-1,7.5536065E-2,-3.93517E-1,3.586043E-2,-4.0909863E-1,-2.0083441E-1,1.8083985E-1,-8.08633E-2,-3.931775E-1,-9.386829E-2,3.138522E-1,-9.1984876E-2,2.789751E-1],"categories":[],"categories_nodes":[],"categories_segments":[],"categories_sizes":[],"default_left":[0,0,0,0,0,0,0,0,0,0,0,0,0,0,0,0,0,0,0,0,0,0,0,0,0,0,0,0,0,0,0,0,0,0,0,0,0,0,0,0,0,0,0,0,0,0,0,0,0,0,0,0,0,0,0,0,0,0,0,0,0,0,0,0,0,0,0,0,0,0,0,0,0,0,0,0,0],"id":9,"left_children":[1,3,5,7,9,11,13,15,17,19,21,23,25,27,-1,29,-1,31,-1,-1,-1,33,35,37,39,-1,-1,41,43,45,47,49,51,53,-1,-1,-1,55,57,59,61,-1,63,-1,-1,-1,-1,65,-1,-1,-1,-1,67,-1,-1,-1,-1,69,71,73,-1,-1,75,-1,-1,-1,-1,-1,-1,-1,-1,-1,-1,-1,-1,-1,-1],"loss_changes":[2.2108557E0,2.960661E0,3.2301488E0,2.915483E0,2.813944E0,1.3883408E0,2.7030704E0,2.9681861E0,1.6678205E0,2.1470815E-1,1.9128096E0,1.2803583E0,4.925964E-1,2.6738958E0,0E0,1.772247E0,0E0,1.2191563E0,0E0,0E0,0E0,1.1903563E0,9.436377E-1,1.2003634E0,1.7329509E0,0E0,0E0,3.900776E-1,4.0568545E-1,1.6652067E0,1.5775496E0,2.4515598E0,6.96311E-1,1.2794251E0,0E0,0E0,0E0,4.7511423E-1,6.7834246E-1,1.4947922E0,4.242568E-1,0E0,2.285921E0,0E0,0E0,0E0,0E0,1.5067234E0,0E0,0E0,0E0,0E0,1.9747691E0,0E0,0E0,0E0,0E0,7.1164846E-1,3.104987E-1,9.789212E-1,0E0,0E0,5.930337E-1,0E0,0E0,0E0,0E0,0E0,0E0,0E0,0E0,0E0,0E0,0E0,0E0,0E0,0E0],"parents":[2147483647,0,0,1,1,2,2,3,3,4,4,5,5,6,6,7,7,8,8,9,9,10,10,11,11,12,12,13,13,15,15,17,17,21,21,22,22,23,23,24,24,27,27,28,28,29,29,30,30,31,31,32,32,33,33,37,37,38,38,39,39,40,40,42,42,47,47,52,52,57,57,58,58,59,59,62,62],"right_children":[2,4,6,8,10,12,14,16,18,20,22,24,26,28,-1,30,-1,32,-1,-1,-1,34,36,38,40,-1,-1,42,44,46,48,50,52,54,-1,-1,-1,56,58,60,62,-1,64,-1,-1,-1,-1,66,-1,-1,-1,-1,68,-1,-1,-1,-1,70,72,74,-1,-1,76,-1,-1,-1,-1,-1,-1,-1,-1,-1,-1,-1,-1,-1,-1],"split_conditions":[3.6E1,3.33E0,1.225E1,3.15E0,2.35E1,1.185E1,3.32E0,1.3E1,7.9E-1,1.194E1,3.42E0,3.22E0,6.7E-1,1.275E1,-1.6039744E-1,1.8E1,5.4226106E-1,1.0466666E1,2.0429881E-1,-5.342263E-2,-3.2203102E-1,3.2E1,3.53E0,9E0,1.105E1,-3.8340044E-1,7.89582E-3,3.95E1,4.6E1,3.04E0,3.3E1,1.04E1,2.7E1,2.8E1,-3.1526566E-2,-3.006863E-1,1.7957811E-1,4.85E1,4.25E1,5.05E1,4.1E-1,8.6250216E-1,5E1,-1.259617E-1,1.6658174E-1,-1.5300675E-1,4.242289E-1,3.5E-1,1.5341707E-1,-3.3576262E-1,3.512315E-1,-4.6461627E-1,3.05E1,5.826994E-2,6.892866E-1,-5.619016E-2,3.1860605E-1,3.85E1,3.05E0,5.8E-1,-3.421709E-1,4.9560526E-1,5.8E-1,-1.1925129E-1,6.3555145E-1,7.5536065E-2,-3.93517E-1,3.586043E-2,-4.0909863E-1,-2.0083441E-1,1.8083985E-1,-8.08633E-2,-3.931775E-1,-9.386829E-2,3.138522E-1,-9.1984876E-2,2.789751E-1],"split_indices":[4,5,7,5,4,7,5,7,6,7,5,5,6,7,0,4,0,7,0,0,0,4,5,7,7,0,0,4,4,5,4,7,4,4,0,0,0,4,4,4,6,0,4,0,0,0,0,6,0,0,0,0,4,0,0,0,0,4,5,6,0,0,6,0,0,0,0,0,0,0,0,0,0,0,0,0,0],"split_type":[0,0,0,0,0,0,0,0,0,0,0,0,0,0,0,0,0,0,0,0,0,0,0,0,0,0,0,0,0,0,0,0,0,0,0,0,0,0,0,0,0,0,0,0,0,0,0,0,0,0,0,0,0,0,0,0,0,0,0,0,0,0,0,0,0,0,0,0,0,0,0,0,0,0,0,0,0],"sum_hessian":[7.869806E1,4.6764107E1,3.1933952E1,3.6447807E1,1.03163E1,2.310015E1,8.833804E0,1.4339733E1,2.2108072E1,3.2045727E0,7.111727E0,1.9725471E1,3.3746774E0,6.9182467E0,1.9155574E0,1.3114519E1,1.2252138E0,2.1093782E1,1.0142902E0,1.7635617E0,1.4410108E0,4.9344244E0,2.1773028E0,9.385897E0,1.0339575E1,2.3704348E0,1.0042427E0,4.141775E0,2.7764716E0,3.404235E0,9.710284E0,3.224996E0,1.7868786E1,3.932205E0,1.0022194E0,1.096468E0,1.080835E0,2.0357292E0,7.3501673E0,5.896332E0,4.4432435E0,1.5857886E0,2.5559864E0,1.3314954E0,1.4449762E0,1.4846762E0,1.9195588E0,7.6720233E0,2.0382612E0,1.8019923E0,1.4230038E0,8.970906E0,8.897881E0,1.2848088E0,2.6473963E0,1.0159587E0,1.0197705E0,2.8939335E0,4.4562335E0,4.1863E0,1.7100321E0,1.6837211E0,2.7595224E0,1.3604236E0,1.195563E0,1.9110705E0,5.7609525E0,4.1303377E0,4.7675424E0,1.3442285E0,1.549705E0,1.8372747E0,2.618959E0,2.2714958E0,1.9148041E0,1.2026465E0,1.556876E0],"tree_param":{"num_deleted":"0","num_feature":"8","num_nodes":"77","size_leaf_vector":"1"}},{"base_weights":[-3.482408E-2,-3.5472783E-1,9.8607495E-2,-5.426844E-1,-1.0399493E-1,3.3887107E-2,4.6576002E-1,1.1173195E-2,-6.618873E-1,3.886385E-1,-2.8489438E-1,-5.2623904E-1,1.0480501E-1,-2.6829493E-1,2.7158198E-1,-7.5977653E-1,-2.011353E-2,4.252284E-1,-1.1489029E-1,-3.7101996E-1,1.7642677E-2,1.16198085E-1,-3.8627884E-1,-1.7611761E-1,2.7401218E-1,-4.4000614E-1,-3.2480216E-1,3.4541243E-1,-2.681005E-1,3.1254083E-1,-3.565536E-1,6.13556E-1,1.7910749E-1,-3.145465E-1,9.879194E-2,1.0527484E-1,-3.2304576E-1,6.02331E-1,-1.6790856E-1,-4.2753702E-1,1.3016877E-1,2.9607707E-1,-3.835598E-1,1.3197525E-1,-5.3111553E-2,-2.4870547E-2,4.398185E-1,1.05119295E-1,-2.5804794E-1,1.25118885E-2,2.531235E-1,1.5344435E-1,-4.4947794E-1],"categories":[],"categories_nodes":[],"categories_segments":[],"categories_sizes":[],"default_left":[0,0,0,0,0,0,0,0,0,0,0,0,0,0,0,0,0,0,0,0,0,0,0,0,0,0,0,0,0,0,0,0,0,0,0,0,0,0,0,0,0,0,0,0,0,0,0,0,0,0,0,0,0],"id":10,"left_children":[1,3,5,7,9,11,-1,13,15,17,19,21,23,-1,-1,25,-1,-1,-1,-1,27,-1,-1,29,31,-1,33,-1,35,37,39,-1,41,-1,-1,43,-1,45,-1,47,-1,49,51,-1,-1,-1,-1,-1,-1,-1,-1,-1,-1],"loss_changes":[3.2459927E0,9.9726534E-1,2.8721852E0,8.3544445E-1,1.0746741E0,2.0818357E0,0E0,1.2253164E0,5.985093E-1,1.1459336E0,1.1870852E0,1.2820215E0,2.24056E0,0E0,0E0,1.78339E-1,0E0,0E0,0E0,0E0,1.3556703E0,0E0,0E0,1.6937485E0,2.4191794E0,0E0,6.817641E-1,0E0,7.7256036E-1,1.211676E0,7.056718E-1,0E0,1.9368799E0,0E0,0E0,1.4117554E-1,0E0,7.79855E-1,0E0,8.174052E-1,0E0,1.326066E0,2.1276069E0,0E0,0E0,0E0,0E0,0E0,0E0,0E0,0E0,0E0,0E0],"parents":[2147483647,0,0,1,1,2,2,3,3,4,4,5,5,7,7,8,8,9,9,10,10,11,11,12,12,15,15,20,20,23,23,24,24,26,26,28,28,29,29,30,30,32,32,35,35,37,37,39,39,41,41,42,42],"right_children":[2,4,6,8,10,12,-1,14,16,18,20,22,24,-1,-1,26,-1,-1,-1,-1,28,-1,-1,30,32,-1,34,-1,36,38,40,-1,42,-1,-1,44,-1,46,-1,48,-1,50,52,-1,-1,-1,-1,-1,-1,-1,-1,-1,-1],"split_conditions":[1.1E1,3.8E1,1.13E1,1.55E1,2.5E0,2.6E-2,4.6576002E-1,1.5E1,5.6E-2,1.0466666E1,1.03E1,2.3E0,2.7E0,-2.6829493E-1,2.7158198E-1,1.07E1,-2.011353E-2,4.252284E-1,-1.1489029E-1,-3.7101996E-1,1.16E1,1.16198085E-1,-3.8627884E-1,1.4E0,2.9E0,-4.4000614E-1,4.1E-2,3.4541243E-1,9E0,4.1E-2,5.15E1,6.13556E-1,1.3E1,-3.145465E-1,9.879194E-2,4.6E1,-3.2304576E-1,3.3E-2,-1.6790856E-1,1.55E1,1.3016877E-1,3.3E1,3.3E-2,1.3197525E-1,-5.3111553E-2,-2.4870547E-2,4.398185E-1,1.05119295E-1,-2.5804794E-1,1.25118885E-2,2.531235E-1,1.5344435E-1,-4.4947794E-1],"split_indices":[7,4,2,4,2,3,0,4,3,7,2,2,2,0,0,7,0,0,0,0,2,0,0,2,2,0,3,0,7,3,4,0,7,0,0,4,0,3,0,4,0,4,3,0,0,0,0,0,0,0,0,0,0],"split_type":[0,0,0,0,0,0,0,0,0,0,0,0,0,0,0,0,0,0,0,0,0,0,0,0,0,0,0,0,0,0,0,0,0,0,0,0,0,0,0,0,0,0,0,0,0,0,0,0,0,0,0,0,0],"sum_hessian":[7.422535E1,2.1358824E1,5.2866528E1,1.1542125E1,9.8167E0,5.002044E1,2.8460882E0,2.2046826E0,9.337442E0,2.3281662E0,7.4885335E0,4.8998537E0,4.5120583E1,1.0819795E0,1.122703E0,7.875206E0,1.462236E0,1.1180365E0,1.2101297E0,2.4037092E0,5.084824E0,1.2148297E0,3.685024E0,1.6945814E1,2.817477E1,5.368192E0,2.5070138E0,1.0927567E0,3.9920673E0,4.372372E0,1.25734415E1,1.4710916E0,2.6703678E1,1.4551297E0,1.051884E0,2.3712556E0,1.6208117E0,3.0708258E0,1.3015466E0,1.1551233E1,1.0222089E0,2.2500069E1,4.20361E0,1.2131151E0,1.1581405E0,1.1611241E0,1.9097016E0,1.2408664E0,1.0310367E1,1.0315444E1,1.2184625E1,1.9696E0,2.2340097E0],"tree_param":{"num_deleted":"0","num_feature":"8","num_nodes":"53","size_leaf_vector":"1"}},{"base_weights":[-3.1826824E-2,6.784053E-2,-4.3499696E-1,6.3381475E-1,-1.606539E-2,-6.311537E-1,4.177304E-2,-7.1561E-2,9.4345164E-1,-2.458988E-1,1.5137137E-1,-7.8367525E-1,-3.871482E-2,4.3261847E-1,-3.05714E-1,6.322646E-1,-7.002979E-2,2.7279273E-1,-3.3206344E-1,-3.770144E-2,4.363718E-1,-4.6333367E-1,4.108891E-2,1.4911221E-1,-1.7940988E-1,4.709875E-2,3.051882E-1,2.492042E-2,-5.820769E-1,-4.5314038E-1,1.1172677E-1,-2.1772695E-1,6.0488755E-1,-4.493688E-1,4.6068254E-1,-1.7914578E-1,-6.759905E-1,-6.5329954E-2,-3.8549447E-1,3.548975E-1,-3.7607333E-1,8.978053E-1,2.679684E-1,2.7015628E-2,-2.9515952E-1,4.569909E-1,-2.943774E-1,9.02677E-2,-2.0102395E-1,-1.00321054E-1,-4.29997E-1,-1.850519E-1,1.6172045E-1,2.5286074E-3,4.8007816E-1,-4.0541303E-1,7.74472E-2,5.504514E-1,5.2834403E-2,-1.5007782E-1,3.3400854E-1],"categories":[],"categories_nodes":[],"categories_segments":[],"categories_sizes":[],"default_left":[0,0,0,0,0,0,0,0,0,0,0,0,0,0,0,0,0,0,0,0,0,0,0,0,0,0,0,0,0,0,0,0,0,0,0,0,0,0,0,0,0,0,0,0,0,0,0,0,0,0,0,0,0,0,0,0,0,0,0,0,0],"id":11,"left_children":[1,3,5,7,9,11,13,-1,15,17,19,21,23,25,-1,-1,-1,-1,27,29,31,-1,-1,-1,-1,-1,-1,33,35,37,39,-1,41,43,45,47,49,51,-1,53,55,57,59,-1,-1,-1,-1,-1,-1,-1,-1,-1,-1,-1,-1,-1,-1,-1,-1,-1,-1],"loss_changes":[2.8833296E0,2.7554412E0,1.3554888E0,1.9365022E0,2.012163E0,8.8511753E-1,1.5616137E0,0E0,2.0857034E0,1.6822705E0,1.6497023E0,1.067256E0,4.4419008E-1,1.6895455E-1,0E0,0E0,0E0,0E0,1.8416152E0,1.2389137E0,2.0510392E0,0E0,0E0,0E0,0E0,0E0,0E0,2.1479056E0,3.3604145E-1,5.981884E-1,1.8985424E0,0E0,8.070419E-1,3.8687265E-1,3.1012437E0,3.6474207E-1,6.5283346E-1,5.299687E-1,0E0,2.2067127E0,1.3803669E0,7.287812E-1,1.6465228E0,0E0,0E0,0E0,0E0,0E0,0E0,0E0,0E0,0E0,0E0,0E0,0E0,0E0,0E0,0E0,0E0,0E0,0E0],"parents":[2147483647,0,0,1,1,2,2,3,3,4,4,5,5,6,6,8,8,9,9,10,10,11,11,12,12,13,13,18,18,19,19,20,20,27,27,28,28,29,29,30,30,32,32,33,33,34,34,35,35,36,36,37,37,39,39,40,40,41,41,42,42],"right_children":[2,4,6,8,10,12,14,-1,16,18,20,22,24,26,-1,-1,-1,-1,28,30,32,-1,-1,-1,-1,-1,-1,34,36,38,40,-1,42,44,46,48,50,52,-1,54,56,58,60,-1,-1,-1,-1,-1,-1,-1,-1,-1,-1,-1,-1,-1,-1,-1,-1,-1,-1],"split_conditions":[7.4E0,3.05E0,3.21E0,2.98E0,3.24E0,3.65E-1,3.29E0,-7.1561E-2,7E0,5.9E0,6.6E0,5.3E1,4.3E-1,3.5E1,-3.05714E-1,6.322646E-1,-7.002979E-2,2.7279273E-1,2.45E-1,3.3E0,2.35E1,-4.6333367E-1,4.108891E-2,1.4911221E-1,-1.7940988E-1,4.709875E-2,3.051882E-1,6.8E0,3.1E0,6.4E0,3.43E0,-2.1772695E-1,3.2E1,2.2E1,7.1E0,2.85E-1,6.6E0,2.85E-1,-3.8549447E-1,4.25E1,3.53E0,3.35E-1,2.55E-1,2.7015628E-2,-2.9515952E-1,4.569909E-1,-2.943774E-1,9.02677E-2,-2.0102395E-1,-1.00321054E-1,-4.29997E-1,-1.850519E-1,1.6172045E-1,2.5286074E-3,4.8007816E-1,-4.0541303E-1,7.74472E-2,5.504514E-1,5.2834403E-2,-1.5007782E-1,3.3400854E-1],"split_indices":[0,5,5,5,5,1,5,0,0,0,0,4,1,4,0,0,0,0,1,5,4,0,0,0,0,0,0,0,5,0,5,0,4,4,0,1,0,1,0,4,5,1,1,0,0,0,0,0,0,0,0,0,0,0,0,0,0,0,0,0,0],"split_type":[0,0,0,0,0,0,0,0,0,0,0,0,0,0,0,0,0,0,0,0,0,0,0,0,0,0,0,0,0,0,0,0,0,0,0,0,0,0,0,0,0,0,0,0,0,0,0,0,0,0,0,0,0,0,0,0,0,0,0,0,0],"sum_hessian":[7.0020744E1,5.6808815E1,1.3211928E1,6.4884076E0,5.0320408E1,9.131257E0,4.0806713E0,2.0022254E0,4.486182E0,2.1010952E1,2.9309458E1,7.0050373E0,2.1262195E0,2.7643228E0,1.3163486E0,3.3318012E0,1.154381E0,1.5393169E0,1.9471634E1,1.8141726E1,1.1167731E1,5.951874E0,1.0531639E0,1.069173E0,1.0570465E0,1.4788201E0,1.2855026E0,8.390917E0,1.1080718E1,4.261486E0,1.388024E1,1.5523751E0,9.615356E0,4.0028915E0,4.388025E0,2.644065E0,8.436653E0,2.4625006E0,1.7989854E0,9.444543E0,4.4356976E0,4.253024E0,5.3623323E0,1.0105178E0,2.992374E0,3.15452E0,1.2335049E0,1.0843675E0,1.5596975E0,2.937762E0,5.498891E0,1.4072856E0,1.0552149E0,6.6241384E0,2.820404E0,2.1490214E0,2.2866764E0,3.0748637E0,1.1781603E0,2.3188913E0,3.043441E0],"tree_param":{"num_deleted":"0","num_feature":"8","num_nodes":"61","size_leaf_vector":"1"}},{"base_weights":[-5.4730225E-2,-2.4645643E-1,1.4674379E-1,-1.0587493E-1,-6.678288E-1,2.7389225E-2,6.4736027E-1,1.5340398E-2,-5.107253E-1,-3.568176E-3,-3.8563463E-1,-3.2167685E-1,1.0346059E-1,8.155347E-1,2.7412377E-2,-2.6506722E-1,4.399531E-1,-4.5285684E-1,2.1743329E-1,1.7871696E-1,-3.4095088E-1,4.8284188E-1,1.3380675E-1,-6.968344E-2,-3.518488E-1,-1.3548426E-1,6.354607E-1,8.24654E-2,6.767676E-1,1.7714433E-1,-3.0210906E-1,8.9613646E-1,3.8957138E-2,2.1022436E-1,-5.113328E-1,-3.7305403E-4,4.6488667E-1,-6.822465E-2,3.5443303E-1,-3.2167754E-1,1.9048181E-1,5.039053E-2,6.645685E-1,-2.0724168E-1,2.4206369E-1,4.4900176E-1,5.496533E-2,-3.480038E-1,-3.4445304E-2],"categories":[],"categories_nodes":[],"categories_segments":[],"categories_sizes":[],"default_left":[0,0,0,0,0,0,0,0,0,0,0,0,0,0,0,0,0,0,0,0,0,0,0,0,0,0,0,0,0,0,0,0,0,0,0,0,0,0,0,0,0,0,0,0,0,0,0,0,0],"id":12,"left_children":[1,3,5,7,9,11,13,15,17,-1,-1,-1,19,21,-1,23,25,-1,-1,27,-1,-1,-1,29,-1,-1,31,33,35,37,39,41,43,45,47,-1,-1,-1,-1,-1,-1,-1,-1,-1,-1,-1,-1,-1,-1],"loss_changes":[2.6132843E0,1.9764397E0,1.9634948E0,1.3378181E0,5.7246304E-1,1.4859977E0,5.869956E-1,2.7155228E0,2.7371383E0,0E0,0E0,0E0,1.6494935E0,1.4187574E-1,0E0,1.1310871E0,1.4310961E0,0E0,0E0,1.1128651E0,0E0,0E0,0E0,6.6372615E-1,0E0,0E0,1.116184E0,1.7438031E0,6.537099E-1,1.0619799E0,1.6081741E0,1.6245389E0,8.6613125E-1,1.1745715E0,2.879038E-1,0E0,0E0,0E0,0E0,0E0,0E0,0E0,0E0,0E0,0E0,0E0,0E0,0E0,0E0],"parents":[2147483647,0,0,1,1,2,2,3,3,4,4,5,5,6,6,7,7,8,8,12,12,13,13,15,15,16,16,19,19,23,23,26,26,27,27,28,28,29,29,30,30,31,31,32,32,33,33,34,34],"right_children":[2,4,6,8,10,12,14,16,18,-1,-1,-1,20,22,-1,24,26,-1,-1,28,-1,-1,-1,30,-1,-1,32,34,36,38,40,42,44,46,48,-1,-1,-1,-1,-1,-1,-1,-1,-1,-1,-1,-1,-1,-1],"split_conditions":[1.185E1,2.85E-1,4.35E-1,1.1333333E1,3.5E-1,3.2E-1,5.4E-1,2.4E-1,4.25E1,-3.568176E-3,-3.8563463E-1,-3.2167685E-1,1.3133333E1,1.3E1,2.7412377E-2,5.6E-1,1.04E1,-4.5285684E-1,2.1743329E-1,5.25E1,-3.4095088E-1,4.8284188E-1,1.3380675E-1,1.0466666E1,-3.518488E-1,-1.3548426E-1,5.1E-1,3.95E1,1.225E1,1.04E1,5E-1,4.2E-1,6.3E-1,1.194E1,3.15E-1,-3.7305403E-4,4.6488667E-1,-6.822465E-2,3.5443303E-1,-3.2167754E-1,1.9048181E-1,5.039053E-2,6.645685E-1,-2.0724168E-1,2.4206369E-1,4.4900176E-1,5.496533E-2,-3.480038E-1,-3.4445304E-2],"split_indices":[7,1,1,7,6,6,1,1,4,0,0,0,7,7,0,6,7,0,0,4,0,0,0,7,0,0,6,4,7,7,6,6,6,7,1,0,0,0,0,0,0,0,0,0,0,0,0,0,0],"split_type":[0,0,0,0,0,0,0,0,0,0,0,0,0,0,0,0,0,0,0,0,0,0,0,0,0,0,0,0,0,0,0,0,0,0,0,0,0,0,0,0,0,0,0,0,0,0,0,0,0],"sum_hessian":[6.571659E1,3.3558483E1,3.2158108E1,2.6101547E1,7.4569364E0,2.6818808E1,5.3392997E0,2.0827686E1,5.2738614E0,1.1541523E0,6.3027844E0,1.9721915E0,2.4846617E1,3.8657646E0,1.4735351E0,1.2770193E1,8.057493E0,3.749719E0,1.5241426E0,2.337881E1,1.4678054E0,2.4358175E0,1.429947E0,9.636549E0,3.1336443E0,1.6546686E0,6.402825E0,2.0569244E1,2.8095653E0,4.7888284E0,4.84772E0,4.1061125E0,2.2967122E0,1.7458845E1,3.1104004E0,1.0350089E0,1.7745564E0,3.4798806E0,1.3089477E0,3.2715042E0,1.5762161E0,1.8819714E0,2.2241411E0,1.1719366E0,1.1247756E0,1.2096629E0,1.6249182E1,1.7901076E0,1.3202927E0],"tree_param":{"num_deleted":"0","num_feature":"8","num_nodes":"49","size_leaf_vector":"1"}},{"base_weights":[9.1638835E-3,3.204891E-2,-3.225833E-1,5.282055E-2,-2.979824E-1,-6.815591E-2,1.6341363E-1,4.627912E-2,-4.796593E-1,-2.6484686E-1,2.171111E-1,1.04097165E-1,-2.926783E-1,-3.9197874E-1,-3.5022706E-2,6.8385586E-2,-3.189953E-1,4.668295E-1,1.0234898E-1,1.9085589E-1,-3.688703E-1,-1.18721835E-1,9.836283E-2,-1.4326727E-1,6.341534E-1,3.3869225E-1,2.139812E-2,4.6894614E-2,4.4576797E-1,-4.542272E-2,-2.4498491E-1,4.220522E-1,4.839699E-2,8.019005E-2,-2.1876222E-1],"categories":[],"categories_nodes":[],"categories_segments":[],"categories_sizes":[],"default_left":[0,0,0,0,0,0,0,0,0,0,0,0,0,0,0,0,0,0,0,0,0,0,0,0,0,0,0,0,0,0,0,0,0,0,0],"id":13,"left_children":[1,3,-1,5,-1,7,9,11,13,15,17,19,-1,-1,21,-1,-1,23,25,27,29,-1,-1,-1,31,-1,33,-1,-1,-1,-1,-1,-1,-1,-1],"loss_changes":[9.8506314E-1,8.5563844E-1,0E0,8.4164387E-1,0E0,1.4514534E0,8.100234E-1,9.614937E-1,8.779732E-1,7.011436E-1,8.0127645E-1,1.032258E0,0E0,0E0,2.2336487E-1,0E0,0E0,1.3222198E0,9.9001265E-1,1.3083417E0,8.929795E-2,0E0,0E0,0E0,7.886498E-1,0E0,1.3425533E0,0E0,0E0,0E0,0E0,0E0,0E0,0E0,0E0],"parents":[2147483647,0,0,1,1,3,3,5,5,6,6,7,7,8,8,9,9,10,10,11,11,14,14,17,17,18,18,19,19,20,20,24,24,26,26],"right_children":[2,4,-1,6,-1,8,10,12,14,16,18,20,-1,-1,22,-1,-1,24,26,28,30,-1,-1,-1,32,-1,34,-1,-1,-1,-1,-1,-1,-1,-1],"split_conditions":[1.49E1,1.35E1,-3.225833E-1,1.19E1,-2.979824E-1,2.85E-1,1.9E1,1.16E1,1.12E1,1.26E1,2.85E1,5.05E1,-2.926783E-1,-3.9197874E-1,3.6E-1,6.8385586E-2,-3.189953E-1,1.95E0,1.5E0,4.8E1,5.5E1,-1.18721835E-1,9.836283E-2,-1.4326727E-1,4.8E0,3.3869225E-1,3.65E-1,4.6894614E-2,4.4576797E-1,-4.542272E-2,-2.4498491E-1,4.220522E-1,4.839699E-2,8.019005E-2,-2.1876222E-1],"split_indices":[2,7,0,7,0,1,4,7,7,7,4,4,0,0,1,0,0,2,2,4,4,0,0,0,2,0,1,0,0,0,0,0,0,0,0],"split_type":[0,0,0,0,0,0,0,0,0,0,0,0,0,0,0,0,0,0,0,0,0,0,0,0,0,0,0,0,0,0,0,0,0,0,0],"sum_hessian":[6.3402454E1,6.217879E1,1.2236656E0,6.107463E1,1.104159E0,2.9351307E1,3.1723324E1,2.3659399E1,5.691909E0,3.0963552E0,2.8626968E1,2.244046E1,1.2189384E0,2.9261694E0,2.7657394E0,1.7963691E0,1.2999861E0,8.047684E0,2.0579285E1,1.946616E1,2.974301E0,1.4631627E0,1.3025769E0,1.3330892E0,6.714595E0,1.6303344E0,1.894895E1,1.8093487E1,1.3726736E0,1.4334666E0,1.5408345E0,4.417717E0,2.296878E0,1.5043611E1,3.9053392E0],"tree_param":{"num_deleted":"0","num_feature":"8","num_nodes":"35","size_leaf_vector":"1"}},{"base_weights":[-6.0109954E-2,-8.747647E-2,3.648318E-1,-5.44249E-2,-5.069768E-1,-5.0824028E-2,2.9178685E-1,-2.5653458E-1,-2.7249755E-2,-3.6499688E-1,8.194975E-3,2.8450632E-1,-6.040882E-2,-1.0118175E-1,1.222823E-1,2.9586506E-1,-1.4244501E-1,-3.751508E-1,5.0110185E-1,3.653953E-1,-2.0943813E-2,-3.119245E-1,-4.7583528E-2,6.114746E-3,3.9897725E-1],"categories":[],"categories_nodes":[],"categories_segments":[],"categories_sizes":[],"default_left":[0,0,0,0,0,0,0,0,0,0,0,0,0,0,0,0,0,0,0,0,0,0,0,0,0],"id":14,"left_children":[1,3,5,7,9,-1,-1,-1,11,-1,-1,-1,13,15,17,19,21,-1,23,-1,-1,-1,-1,-1,-1],"loss_changes":[7.71557E-1,8.1209123E-1,4.7171915E-1,6.996672E-1,5.1417625E-1,0E0,0E0,0E0,1.1240064E0,0E0,0E0,0E0,4.0799582E-1,7.6249886E-1,3.7289367E0,6.863973E-1,8.624971E-1,0E0,1.1036958E0,0E0,0E0,0E0,0E0,0E0,0E0],"parents":[2147483647,0,0,1,1,2,2,3,3,4,4,8,8,12,12,13,13,14,14,15,15,16,16,18,18],"right_children":[2,4,6,8,10,-1,-1,-1,12,-1,-1,-1,14,16,18,20,22,-1,24,-1,-1,-1,-1,-1,-1],"split_conditions":[7.5E-1,6.6E-1,3.25E0,2.98E0,4.25E1,-5.0824028E-2,2.9178685E-1,-2.5653458E-1,3E0,-3.6499688E-1,8.194975E-3,2.8450632E-1,7.3E0,3.05E0,3.14E0,2.6E1,3.2E-1,-3.751508E-1,4.5E-1,3.653953E-1,-2.0943813E-2,-3.119245E-1,-4.7583528E-2,6.114746E-3,3.9897725E-1],"split_indices":[6,6,5,5,4,0,0,0,5,0,0,0,0,5,5,4,6,0,6,0,0,0,0,0,0],"split_type":[0,0,0,0,0,0,0,0,0,0,0,0,0,0,0,0,0,0,0,0,0,0,0,0,0],"sum_hessian":[6.2602352E1,5.9560745E1,3.041604E0,5.625803E1,3.302717E0,1.1418494E0,1.8997546E0,2.1467364E0,5.4111294E1,2.0390387E0,1.2636784E0,1.9993379E0,5.2111954E1,4.2968437E1,9.143519E0,3.4642503E0,3.9504185E1,2.4710355E0,6.6724844E0,1.0056217E0,2.4586287E0,2.4421225E0,3.706206E1,2.914285E0,3.7581995E0],"tree_param":{"num_deleted":"0","num_feature":"8","num_nodes":"25","size_leaf_vector":"1"}},{"base_weights":[-3.672647E-2,-1.6040011E-1,4.2942382E-2,3.5393447E-1,-2.9339594E-1,5.055923E-1,-1.0932699E-2,-4.6533562E-2,3.694059E-1,-1.30006205E-2,-4.6169034E-1,4.0056407E-2,3.7726077E-1,-2.1239717E-1,9.491697E-2,-1.2806578E-1,9.61136E-2,2.4303481E-1,-3.71961E-1,2.6574966E-1,-6.041514E-1,3.4194026E-2,-5.978313E-1,-1.5590683E-1,4.5658198E-1,4.33934E-1,-1.2189752E-1,-2.5468698E-1,-5.6097776E-2,-6.8569076E-1,2.1333255E-2,-3.6797786E-1,3.91198E-1,-3.192277E-2,-3.6923522E-1,1.2939957E-1,-3.4987742E-1,6.215662E-1,-1.4803454E-1,-2.440498E-2,3.075592E-1,-4.730779E-1,-3.6803883E-1,-8.8325344E-2,-3.1068093E-1,-1.2018391E-1,7.341944E-1,2.5423855E-1,-5.5367887E-2,-4.516386E-1,1.1608409E-1,2.539679E-1,9.346553E-1,7.128446E-2,-2.562217E-1,1.5594383E-1,-2.0899868E-1,4.6733037E-1,9.907309E-2,-2.1587673E-1,1.6065899E-1,-8.823307E-2,-3.8246408E-1,3.360742E-1,-1.4090243E-1,6.1000776E-1,5.9567895E-2],"categories":[],"categories_nodes":[],"categories_segments":[],"categories_sizes":[],"default_left":[0,0,0,0,0,0,0,0,0,0,0,0,0,0,0,0,0,0,0,0,0,0,0,0,0,0,0,0,0,0,0,0,0,0,0,0,0,0,0,0,0,0,0,0,0,0,0,0,0,0,0,0,0,0,0,0,0,0,0,0,0,0,0,0,0,0,0],"id":15,"left_children":[1,3,5,7,9,11,13,15,-1,17,19,-1,-1,21,23,-1,-1,25,27,-1,29,31,33,35,37,39,-1,-1,-1,41,-1,43,45,-1,-1,47,49,51,-1,-1,-1,-1,53,55,-1,-1,57,-1,59,61,-1,63,65,-1,-1,-1,-1,-1,-1,-1,-1,-1,-1,-1,-1,-1,-1],"loss_changes":[6.2294513E-1,1.7940012E0,9.7305006E-1,8.866687E-1,9.462098E-1,3.706118E-1,7.824631E-1,2.3192923E-1,0E0,8.805751E-1,2.101219E0,0E0,0E0,1.2200363E0,2.2597218E0,0E0,0E0,6.283724E-1,8.472216E-2,0E0,6.342435E-1,1.384875E0,3.267306E-1,8.7490606E-1,1.4424672E0,4.1477722E-1,0E0,0E0,0E0,4.994464E-1,0E0,2.6962882E-1,1.2733068E0,0E0,0E0,5.0423723E-1,6.494175E-1,7.5643086E-1,0E0,0E0,0E0,0E0,5.340841E-1,5.7139784E-1,0E0,0E0,1.9390738E-1,0E0,9.1449094E-1,5.6894135E-1,0E0,1.3869222E0,8.5303044E-1,0E0,0E0,0E0,0E0,0E0,0E0,0E0,0E0,0E0,0E0,0E0,0E0,0E0,0E0],"parents":[2147483647,0,0,1,1,2,2,3,3,4,4,5,5,6,6,7,7,9,9,10,10,13,13,14,14,17,17,18,18,20,20,21,21,22,22,23,23,24,24,25,25,29,29,31,31,32,32,35,35,36,36,37,37,42,42,43,43,46,46,48,48,49,49,51,51,52,52],"right_children":[2,4,6,8,10,12,14,16,-1,18,20,-1,-1,22,24,-1,-1,26,28,-1,30,32,34,36,38,40,-1,-1,-1,42,-1,44,46,-1,-1,48,50,52,-1,-1,-1,-1,54,56,-1,-1,58,-1,60,62,-1,64,66,-1,-1,-1,-1,-1,-1,-1,-1,-1,-1,-1,-1,-1,-1],"split_conditions":[3E1,3.09E0,2.7E-2,3.04E0,2.45E-1,3.95E1,3.5E-2,2.35E1,3.694059E-1,2.3E1,2.5E-2,4.0056407E-2,3.7726077E-1,3.28E0,3.27E0,-1.2806578E-1,9.61136E-2,3.31E0,3.28E0,2.6574966E-1,5.3E-1,3.16E0,3.55E1,2.25E-1,4.7E-2,3.17E0,-1.2189752E-1,-2.5468698E-1,-5.6097776E-2,3.5E-2,2.1333255E-2,2.85E-1,2.45E-1,-3.192277E-2,-3.6923522E-1,3.04E0,5.9E1,4.25E1,-1.4803454E-1,-2.440498E-2,3.075592E-1,-4.730779E-1,3.8E-2,3.8E1,-3.1068093E-1,-1.2018391E-1,3.1E-2,2.5423855E-1,4.7E-2,3.95E1,1.1608409E-1,3.7E1,5.05E1,7.128446E-2,-2.562217E-1,1.5594383E-1,-2.0899868E-1,4.6733037E-1,9.907309E-2,-2.1587673E-1,1.6065899E-1,-8.823307E-2,-3.8246408E-1,3.360742E-1,-1.4090243E-1,6.1000776E-1,5.9567895E-2],"split_indices":[4,5,3,5,1,4,3,4,0,4,3,0,0,5,5,0,0,5,5,0,1,5,4,1,3,5,0,0,0,3,0,1,1,0,0,5,4,4,0,0,0,0,3,4,0,0,3,0,3,4,0,4,4,0,0,0,0,0,0,0,0,0,0,0,0,0,0],"split_type":[0,0,0,0,0,0,0,0,0,0,0,0,0,0,0,0,0,0,0,0,0,0,0,0,0,0,0,0,0,0,0,0,0,0,0,0,0,0,0,0,0,0,0,0,0,0,0,0,0,0,0,0,0,0,0,0,0,0,0,0,0,0,0,0,0,0,0],"sum_hessian":[6.152523E1,2.3708344E1,3.7816887E1,4.5296383E0,1.9178705E1,3.069882E0,3.4747005E1,2.6506793E0,1.8789588E0,7.597597E0,1.1581109E1,1.6210132E0,1.4488688E0,1.162137E1,2.3125635E1,1.3728013E0,1.2778782E0,4.623059E0,2.974538E0,1.1102176E0,1.0470891E1,7.6429105E0,3.97846E0,1.3991262E1,9.134373E0,3.3989084E0,1.2241505E0,1.3169744E0,1.6575637E0,9.245308E0,1.225583E0,3.5796392E0,4.0632715E0,1.1324986E0,2.8459616E0,5.7971997E0,8.194062E0,7.6349297E0,1.4994432E0,1.126934E0,2.2719743E0,3.9927676E0,5.252541E0,2.3426774E0,1.2369617E0,1.5353725E0,2.527899E0,1.3255847E0,4.471615E0,7.1653643E0,1.0286981E0,4.3448296E0,3.2900999E0,1.1607825E0,4.0917583E0,1.0824987E0,1.2601788E0,1.2986345E0,1.2292644E0,2.163575E0,2.30804E0,4.647011E0,2.5183535E0,2.2972465E0,2.0475833E0,2.06984E0,1.2202599E0],"tree_param":{"num_deleted":"0","num_feature":"8","num_nodes":"67","size_leaf_vector":"1"}},{"base_weights":[-1.0921136E-2,-3.0787584E-1,3.08276E-2,1.4438164E-1,-4.5015404E-1,-3.0885643E-1,7.442894E-2,4.7392E-2,-3.1255946E-1,-3.4620675E-1,3.457886E-2,-1.0674639E-2,4.0497443E-1,1.8248123E-1,-1.8654312E-1,-7.5354636E-2,3.4768182E-1,7.7427715E-1,1.1656984E-1,2.3083687E-1,-1.1313268E-1,5.6883526E-1,-1.1256071E-1,4.6619695E-1,9.867099E-2,-1.6813111E-1,5.266401E-1,-2.6343927E-1,9.562073E-2,3.7666267E-1,-2.5148583E-3,2.8288123E-1,-3.266308E-1,6.84927E-2,3.2814232E-1,-7.824521E-2,-3.2242924E-1,-1.0780117E-1,1.7815736E-1,3.1770137E-1,-1.1677662E-1],"categories":[],"categories_nodes":[],"categories_segments":[],"categories_sizes":[],"default_left":[0,0,0,0,0,0,0,0,0,0,0,0,0,0,0,0,0,0,0,0,0,0,0,0,0,0,0,0,0,0,0,0,0,0,0,0,0,0,0,0,0],"id":16,"left_children":[1,3,5,-1,7,9,11,-1,-1,-1,13,15,17,-1,-1,19,21,23,25,-1,27,29,-1,-1,-1,31,33,35,37,-1,-1,39,-1,-1,-1,-1,-1,-1,-1,-1,-1],"loss_changes":[7.6746994E-1,7.7744526E-1,8.303567E-1,0E0,6.8369615E-1,8.663861E-1,1.3860207E0,0E0,0E0,0E0,7.1889395E-1,9.5414746E-1,9.836017E-1,0E0,0E0,7.5694263E-1,9.260289E-1,2.0314002E-1,8.8692033E-1,0E0,1.0686603E0,5.149579E-1,0E0,0E0,0E0,1.2337747E0,6.388348E-2,6.986525E-1,1.2658391E0,0E0,0E0,7.277529E-1,0E0,0E0,0E0,0E0,0E0,0E0,0E0,0E0,0E0],"parents":[2147483647,0,0,1,1,2,2,4,4,5,5,6,6,10,10,11,11,12,12,15,15,16,16,17,17,18,18,20,20,21,21,25,25,26,26,27,27,28,28,31,31],"right_children":[2,4,6,-1,8,10,12,-1,-1,-1,14,16,18,-1,-1,20,22,24,26,-1,28,30,-1,-1,-1,32,34,36,38,-1,-1,40,-1,-1,-1,-1,-1,-1,-1,-1,-1],"split_conditions":[3.04E0,9E0,1.04E1,1.4438164E-1,2.5E1,4.1E1,4.4E-2,4.7392E-2,-3.1255946E-1,-3.4620675E-1,4.6E1,3.41E0,3.18E0,1.8248123E-1,-1.8654312E-1,3.05E0,3.5E-2,3.5E1,1.1733334E1,2.3083687E-1,3.55E1,4.35E1,-1.1256071E-1,4.6619695E-1,9.867099E-2,1.08E1,3.27E0,3.2E1,1.205E1,3.7666267E-1,-2.5148583E-3,4.7E-2,-3.266308E-1,6.84927E-2,3.2814232E-1,-7.824521E-2,-3.2242924E-1,-1.0780117E-1,1.7815736E-1,3.1770137E-1,-1.1677662E-1],"split_indices":[5,7,7,0,4,4,3,0,0,0,4,5,5,0,0,5,3,4,7,0,4,4,0,0,0,7,5,4,7,0,0,3,0,0,0,0,0,0,0,0,0],"split_type":[0,0,0,0,0,0,0,0,0,0,0,0,0,0,0,0,0,0,0,0,0,0,0,0,0,0,0,0,0,0,0,0,0,0,0,0,0,0,0,0,0],"sum_hessian":[6.013974E1,6.6271276E0,5.351261E1,1.0778074E0,5.54932E0,5.3953705E0,4.811724E1,1.4600817E0,4.0892386E0,2.0687733E0,3.3265972E0,3.903487E1,9.08237E0,1.8953224E0,1.4312747E0,3.3735626E1,5.2992444E0,3.2438817E0,5.838488E0,1.4797508E0,3.2255875E1,3.828159E0,1.4710853E0,2.062508E0,1.1813735E0,3.7942412E0,2.044247E0,1.8600897E1,1.3654979E1,2.660213E0,1.1679461E0,2.1823072E0,1.6119337E0,1.0237938E0,1.0204532E0,1.5628886E1,2.9720106E0,6.303121E0,7.3518577E0,1.1600708E0,1.0222366E0],"tree_param":{"num_deleted":"0","num_feature":"8","num_nodes":"41","size_leaf_vector":"1"}},{"base_weights":[4.2705E-2,2.3337166E-1,-5.95762E-2,7.102662E-1,1.0813905E-2,-3.664468E-1,5.1049765E-2,2.90965E-2,9.1304386E-1,-4.1709748E-1,1.2657239E-1,6.377414E-2,-6.038952E-1,-8.843674E-2,2.9899886E-1,9.881335E-2,5.381064E-1,1.7169362E-2,-3.098058E-1,2.5306457E-1,-3.0712044E-1,-1.2024256E-1,1.7281048E-1,-7.972562E-2,-3.7186825E-1,-4.552718E-1,1.790138E-1,-1.08265E-1,4.7373006E-1,-6.207886E-2,5.484847E-1,-2.974377E-1,7.16942E-2,-8.450854E-3,-6.5479636E-1,-1.8644275E-1,3.2401335E-1,6.557273E-2,-2.0481957E-1,7.346363E-1,1.0453687E-1,-2.9911578E-1,1.7702706E-1,4.4421628E-2,6.781009E-1,1.5480565E-1,-2.0426197E-1,-2.5672254E-1,-4.008076E-1,1.4809306E-1,-4.5129362E-1,3.5480672E-1,1.4784421E-1,4.5157295E-1,1.3433136E-1,-1.8328564E-1,2.4727319E-1,1.8624291E-1,-8.531685E-2,4.1681898E-1,1.07375935E-1,-1.8181148E-1,-9.00987E-3,-2.6765597E-1,-7.2165824E-2,-1.3374291E-1,1.4211567E-1,5.5213746E-2,-1.8620148E-1],"categories":[],"categories_nodes":[],"categories_segments":[],"categories_sizes":[],"default_left":[0,0,0,0,0,0,0,0,0,0,0,0,0,0,0,0,0,0,0,0,0,0,0,0,0,0,0,0,0,0,0,0,0,0,0,0,0,0,0,0,0,0,0,0,0,0,0,0,0,0,0,0,0,0,0,0,0,0,0,0,0,0,0,0,0,0,0,0,0],"id":17,"left_children":[1,3,5,7,9,11,13,-1,15,17,19,21,23,25,27,-1,-1,-1,-1,29,31,-1,-1,-1,-1,33,35,37,39,41,43,-1,-1,45,47,49,51,-1,-1,53,55,-1,57,-1,59,-1,-1,61,-1,-1,63,-1,65,-1,-1,67,-1,-1,-1,-1,-1,-1,-1,-1,-1,-1,-1,-1,-1],"loss_changes":[1.1597893E0,2.19132E0,1.3440287E0,8.1651163E-1,8.028244E-1,1.1077578E0,1.049243E0,0E0,3.6500168E-1,3.373028E-1,7.735968E-1,4.7989362E-1,3.0652547E-1,2.0140517E0,8.2519335E-1,0E0,0E0,0E0,0E0,9.993828E-1,5.1517785E-1,0E0,0E0,0E0,0E0,7.6009417E-1,7.0212317E-1,3.4803414E-1,6.7417645E-1,8.6422294E-1,2.6466143E-1,0E0,0E0,5.927376E-1,1.4042068E-1,6.54509E-1,5.0885534E-1,0E0,0E0,1.0301924E-1,5.838978E-1,0E0,3.9398324E-1,0E0,1.16683125E-1,0E0,0E0,7.1716666E-2,0E0,0E0,8.0907345E-4,0E0,4.9888515E-1,0E0,0E0,2.2208627E-1,0E0,0E0,0E0,0E0,0E0,0E0,0E0,0E0,0E0,0E0,0E0,0E0,0E0],"parents":[2147483647,0,0,1,1,2,2,3,3,4,4,5,5,6,6,8,8,9,9,10,10,11,11,12,12,13,13,14,14,19,19,20,20,25,25,26,26,27,27,28,28,29,29,30,30,33,33,34,34,35,35,36,36,39,39,40,40,42,42,44,44,47,47,50,50,52,52,55,55],"right_children":[2,4,6,8,10,12,14,-1,16,18,20,22,24,26,28,-1,-1,-1,-1,30,32,-1,-1,-1,-1,34,36,38,40,42,44,-1,-1,46,48,50,52,-1,-1,54,56,-1,58,-1,60,-1,-1,62,-1,-1,64,-1,66,-1,-1,68,-1,-1,-1,-1,-1,-1,-1,-1,-1,-1,-1,-1,-1],"split_conditions":[4.1E-1,2.6E1,2.7E1,1.55E1,3.05E1,3E-2,5.9E-1,2.90965E-2,3.2E-2,6.4E0,4.3E-2,2.1E1,1.55E1,3.6E-2,6.5E0,9.881335E-2,5.381064E-1,1.7169362E-2,-3.098058E-1,3.5E-2,7E0,-1.2024256E-1,1.7281048E-1,-7.972562E-2,-3.7186825E-1,3.2E1,4.5E-1,6.15E0,6.8E0,6E0,3.8E1,-2.974377E-1,7.16942E-2,5E-1,6.15E0,4E-2,4.7E-1,6.557273E-2,-2.0481957E-1,3.8E1,7.7E0,-2.9911578E-1,4.7E1,4.4421628E-2,4.35E1,1.5480565E-1,-2.0426197E-1,3.2E-2,-4.008076E-1,1.4809306E-1,4.2E1,3.5480672E-1,4.9E-1,4.5157295E-1,1.3433136E-1,6.1E-1,2.4727319E-1,1.8624291E-1,-8.531685E-2,4.1681898E-1,1.07375935E-1,-1.8181148E-1,-9.00987E-3,-2.6765597E-1,-7.2165824E-2,-1.3374291E-1,1.4211567E-1,5.5213746E-2,-1.8620148E-1],"split_indices":[6,4,4,4,4,3,6,0,3,0,3,4,4,3,0,0,0,0,0,3,0,0,0,0,0,4,6,0,0,0,4,0,0,6,0,3,6,0,0,4,0,0,4,0,4,0,0,3,0,0,4,0,6,0,0,6,0,0,0,0,0,0,0,0,0,0,0,0,0],"split_type":[0,0,0,0,0,0,0,0,0,0,0,0,0,0,0,0,0,0,0,0,0,0,0,0,0,0,0,0,0,0,0,0,0,0,0,0,0,0,0,0,0,0,0,0,0,0,0,0,0,0,0,0,0,0,0,0,0,0,0,0,0,0,0,0,0,0,0,0,0],"sum_hessian":[5.775852E1,1.9718594E1,3.803992E1,5.57696E0,1.4141634E1,9.466862E0,2.8573061E1,1.628183E0,3.9487772E0,2.456776E0,1.1684858E1,3.6268933E0,5.8399687E0,1.8697758E1,9.875302E0,1.1440121E0,2.8047652E0,1.0179783E0,1.4387977E0,9.368811E0,2.3160477E0,1.8146715E0,1.8122218E0,1.9099602E0,3.9300086E0,7.587913E0,1.1109844E1,3.079046E0,6.7962565E0,4.915256E0,4.453554E0,1.2177671E0,1.0982805E0,2.6641328E0,4.92378E0,3.0746603E0,8.035184E0,2.0307043E0,1.0483419E0,3.402143E0,3.3941133E0,1.0527341E0,3.8625221E0,1.3503639E0,3.1031904E0,1.6101559E0,1.053977E0,2.0672786E0,2.8565013E0,1.0475082E0,2.027152E0,1.5702305E0,6.464954E0,1.8095617E0,1.5925814E0,2.2578754E0,1.1362377E0,2.426763E0,1.4357591E0,1.7249885E0,1.3782021E0,1.0663819E0,1.0008968E0,1.0074898E0,1.0196624E0,1.3605483E0,5.1044054E0,1.0473515E0,1.210524E0],"tree_param":{"num_deleted":"0","num_feature":"8","num_nodes":"69","size_leaf_vector":"1"}},{"base_weights":[-2.824808E-2,-2.5294092E-1,7.631466E-2,-3.503042E-1,3.2083791E-1,-9.738447E-2,1.7045316E-1,1.3256887E-1,-4.1338524E-1,9.917476E-2,-2.4886549E-1,2.215765E-1,-2.6235113E-1,-8.1735365E-2,-4.9556375E-1,2.2316034E-1,-1.653503E-1,-4.1911018E-1,9.692284E-2,8.5934766E-2,4.346231E-1,-1.6048436E-1,1.0672787E-1,-5.815139E-1,-6.4448945E-2,-4.243088E-1,1.0222402E-1,-2.5590864E-1,-8.004397E-3,-9.177962E-2,2.9686922E-1,9.6108997E-1,-1.3766195E-2,-1.359278E-1,-3.4718287E-1,2.233577E-2,-7.130417E-2,-3.433809E-2,-2.8568596E-1,-4.3921992E-1,1.6260925E-1,6.166483E-1,-3.1437948E-1,1.3038598E-2,6.499193E-1,-3.4111166E-1,2.8911534E-1,-2.7030197E-1,1.7144117E-1,-2.7476275E-1,-4.6486907E-2,2.614795E-1,-2.0578508E-1,3.978372E-1,1.5577582E-2,-3.116352E-1,6.4606465E-2,-3.1101355E-1,1.0849976E-1],"categories":[],"categories_nodes":[],"categories_segments":[],"categories_sizes":[],"default_left":[0,0,0,0,0,0,0,0,0,0,0,0,0,0,0,0,0,0,0,0,0,0,0,0,0,0,0,0,0,0,0,0,0,0,0,0,0,0,0,0,0,0,0,0,0,0,0,0,0,0,0,0,0,0,0,0,0,0,0],"id":18,"left_children":[1,3,5,7,-1,9,11,-1,13,15,17,19,-1,21,23,-1,25,27,-1,29,31,-1,-1,33,35,37,-1,-1,-1,39,41,43,45,47,-1,-1,-1,-1,-1,49,51,53,55,-1,-1,57,-1,-1,-1,-1,-1,-1,-1,-1,-1,-1,-1,-1,-1],"loss_changes":[1.3198268E0,1.7761567E0,6.468549E-1,7.583151E-1,0E0,4.4699585E-1,1.0175225E0,0E0,3.8321686E-1,7.063426E-1,7.0644915E-1,6.656189E-1,0E0,3.7110507E-1,4.1688466E-1,0E0,5.309942E-1,2.2752154E-1,0E0,6.311248E-1,2.1888814E0,0E0,0E0,4.1345263E-1,3.3346478E-2,1.2046355E-1,0E0,0E0,0E0,9.116995E-1,1.6798549E0,1.3132563E0,1.3528297E0,8.2173675E-1,0E0,0E0,0E0,0E0,0E0,1.1270803E-1,1.5018312E0,5.337739E-1,5.2907604E-1,0E0,0E0,8.356165E-1,0E0,0E0,0E0,0E0,0E0,0E0,0E0,0E0,0E0,0E0,0E0,0E0,0E0],"parents":[2147483647,0,0,1,1,2,2,3,3,5,5,6,6,8,8,9,9,10,10,11,11,13,13,14,14,16,16,17,17,19,19,20,20,23,23,24,24,25,25,29,29,30,30,31,31,32,32,33,33,39,39,40,40,41,41,42,42,45,45],"right_children":[2,4,6,8,-1,10,12,-1,14,16,18,20,-1,22,24,-1,26,28,-1,30,32,-1,-1,34,36,38,-1,-1,-1,40,42,44,46,48,-1,-1,-1,-1,-1,50,52,54,56,-1,-1,58,-1,-1,-1,-1,-1,-1,-1,-1,-1,-1,-1,-1,-1],"split_conditions":[6.5E0,5.3E-1,2.35E-1,3.05E0,3.2083791E-1,3.8E-2,5E-2,1.3256887E-1,2.9E-2,6.9E0,5.5E-2,4E-2,-2.6235113E-1,3.37E0,4.4E-2,2.2316034E-1,7.3E0,2.15E-1,9.692284E-2,3.21E0,6.9E0,-1.6048436E-1,1.0672787E-1,5.6E0,3.28E0,3.3E-2,1.0222402E-1,-2.5590864E-1,-8.004397E-3,7E0,3.29E0,6.7E0,3.33E0,5.2E0,-3.4718287E-1,2.233577E-2,-7.130417E-2,-3.433809E-2,-2.8568596E-1,3.5E-2,7.6E0,3.6E-2,3.37E0,1.3038598E-2,6.499193E-1,3.6E-1,2.8911534E-1,-2.7030197E-1,1.7144117E-1,-2.7476275E-1,-4.6486907E-2,2.614795E-1,-2.0578508E-1,3.978372E-1,1.5577582E-2,-3.116352E-1,6.4606465E-2,-3.1101355E-1,1.0849976E-1],"split_indices":[0,1,1,5,0,3,3,0,3,0,3,3,0,5,3,0,0,1,0,5,0,0,0,0,5,3,0,0,0,0,5,0,5,0,0,0,0,0,0,3,0,3,5,0,0,1,0,0,0,0,0,0,0,0,0,0,0,0,0],"split_type":[0,0,0,0,0,0,0,0,0,0,0,0,0,0,0,0,0,0,0,0,0,0,0,0,0,0,0,0,0,0,0,0,0,0,0,0,0,0,0,0,0,0,0,0,0,0,0,0,0,0,0,0,0,0,0,0,0,0,0],"sum_hessian":[5.4354397E1,1.681085E1,3.754355E1,1.5709572E1,1.101279E0,1.3183537E1,2.436001E1,1.162702E0,1.454687E1,5.88829E0,7.295247E0,2.332583E1,1.0341793E0,3.2848248E0,1.1262045E1,2.249256E0,3.6390338E0,5.307541E0,1.9877062E0,1.5109397E1,8.216434E0,1.7661494E0,1.5186754E0,9.099118E0,2.162927E0,2.0535731E0,1.5854605E0,4.095858E0,1.2116828E0,8.50703E0,6.6023674E0,3.2532594E0,4.963174E0,2.2842855E0,6.8148327E0,1.0814879E0,1.0814389E0,1.0299354E0,1.0236378E0,3.288745E0,5.218285E0,4.32886E0,2.2735076E0,1.1515992E0,2.1016603E0,3.4688587E0,1.4943151E0,1.1680378E0,1.1162479E0,2.0489154E0,1.2398295E0,3.2609494E0,1.9573356E0,3.0402591E0,1.2886008E0,1.1014632E0,1.1720443E0,2.2312677E0,1.2375913E0],"tree_param":{"num_deleted":"0","num_feature":"8","num_nodes":"59","size_leaf_vector":"1"}},{"base_weights":[8.1677595E-3,-3.4756255E-1,4.261466E-2,-2.9581627E-1,9.172798E-2,-3.7632257E-1,7.364567E-2,-2.2716459E-2,-2.6160553E-1,2.8195435E-1,3.7075046E-2,6.5764084E-2,-3.355373E-1,2.1236E-2,5.514496E-1,1.3680795E-2,-2.853118E-1,-1.8552384E-1,1.415075E-1,5.2000407E-2,3.919585E-1,2.1097277E-1,-1.5594073E-1,2.10216E-1,-6.375552E-4],"categories":[],"categories_nodes":[],"categories_segments":[],"categories_sizes":[],"default_left":[0,0,0,0,0,0,0,0,0,0,0,0,0,0,0,0,0,0,0,0,0,0,0,0,0],"id":19,"left_children":[1,3,5,-1,-1,7,9,-1,-1,-1,11,13,15,17,19,-1,-1,21,23,-1,-1,-1,-1,-1,-1],"loss_changes":[6.854019E-1,7.4887323E-1,6.879148E-1,0E0,0E0,1.5440595E-1,8.418213E-1,0E0,0E0,0E0,5.1218426E-1,9.2704E-1,3.0922508E-1,1.040884E0,2.9348946E-1,0E0,0E0,1.316614E0,1.0504779E0,0E0,0E0,0E0,0E0,0E0,0E0],"parents":[2147483647,0,0,1,1,2,2,5,5,6,6,10,10,11,11,12,12,13,13,14,14,17,17,18,18],"right_children":[2,4,6,-1,-1,8,10,-1,-1,-1,12,14,16,18,20,-1,-1,22,24,-1,-1,-1,-1,-1,-1],"split_conditions":[3.02E0,1.225E1,1.5E-1,-2.9581627E-1,9.172798E-2,3.2E0,1.6E-1,-2.2716459E-2,-2.6160553E-1,2.8195435E-1,3.48E0,3.41E0,3.3E-2,3.4E-2,2.75E-1,1.3680795E-2,-2.853118E-1,1.12E1,3.8E-2,5.2000407E-2,3.919585E-1,2.1097277E-1,-1.5594073E-1,2.10216E-1,-6.375552E-4],"split_indices":[5,7,1,0,0,5,1,0,0,0,5,5,3,3,1,0,0,7,3,0,0,0,0,0,0],"split_type":[0,0,0,0,0,0,0,0,0,0,0,0,0,0,0,0,0,0,0,0,0,0,0,0,0],"sum_hessian":[5.3725086E1,3.9406378E0,4.9784447E1,2.6215556E0,1.3190823E0,2.6658998E0,4.711855E1,1.2221394E0,1.4437605E0,2.2698185E0,4.484873E1,4.2407127E1,2.4416027E0,3.980179E1,2.6053398E0,1.307243E0,1.1343597E0,1.4438275E1,2.5363512E1,1.3856484E0,1.2196914E0,2.0833225E0,1.2354954E1,7.929246E0,1.7434265E1],"tree_param":{"num_deleted":"0","num_feature":"8","num_nodes":"25","size_leaf_vector":"1"}},{"base_weights":[-9.1325514E-2,-1.697098E-1,1.1828013E-1,-3.2989985E-1,6.0963262E-2,3.811824E-1,-2.2042298E-1,3.317128E-1,-4.267501E-1,3.0943584E-1,-1.9321737E-1,-1.7051099E-1,3.0865407E-1,-4.5411117E-2,-2.6111662E-1,-7.2465247E-1,-2.4597917E-1,-8.55706E-2,5.647307E-1,2.2586893E-1,-3.5639882E-1,-2.2145145E-1,1.1269655E-1,-2.3546599E-1,9.8922536E-2,-3.0521587E-1,-4.161262E-1,-3.938094E-1,-2.1965241E-2,9.486653E-2,-1.3566436E-1,3.5242787E-1,3.2881204E-2,-9.547162E-2,-3.6223623E-1,-2.4323061E-1,4.759641E-2,-2.7300283E-1,4.651758E-2,-4.9069813E-1,1.8063048E-2,2.6192567E-1,-3.2993913E-1,-2.9765594E-1,1.6261701E-1,-1.7302617E-2,-3.177205E-1,-1.1008724E-1,2.251227E-1,-1.7237144E-3,-2.4290945E-1],"categories":[],"categories_nodes":[],"categories_segments":[],"categories_sizes":[],"default_left":[0,0,0,0,0,0,0,0,0,0,0,0,0,0,0,0,0,0,0,0,0,0,0,0,0,0,0,0,0,0,0,0,0,0,0,0,0,0,0,0,0,0,0,0,0,0,0,0,0,0,0],"id":20,"left_children":[1,3,5,7,9,11,13,-1,15,17,19,21,-1,23,-1,25,27,29,31,-1,33,-1,-1,35,-1,37,-1,39,41,-1,-1,-1,-1,43,-1,-1,-1,-1,-1,45,-1,47,-1,49,-1,-1,-1,-1,-1,-1,-1],"loss_changes":[8.513622E-1,1.3960372E0,1.3627628E0,2.4122295E0,1.0769109E0,1.2062043E0,3.412292E-1,0E0,9.4045734E-1,9.0833277E-1,1.0636313E0,4.5749348E-1,0E0,2.9940435E-1,0E0,7.685518E-2,4.6962452E-1,2.6710632E-1,3.250357E-1,0E0,6.418882E-1,0E0,0E0,3.3898777E-1,0E0,3.4575844E-1,0E0,3.7770092E-1,1.4044448E0,0E0,0E0,0E0,0E0,5.632962E-1,0E0,0E0,0E0,0E0,0E0,4.481045E-1,0E0,5.914065E-1,0E0,2.3228565E-1,0E0,0E0,0E0,0E0,0E0,0E0,0E0],"parents":[2147483647,0,0,1,1,2,2,3,3,4,4,5,5,6,6,8,8,9,9,10,10,11,11,13,13,15,15,16,16,17,17,18,18,20,20,23,23,25,25,27,27,28,28,33,33,39,39,41,41,43,43],"right_children":[2,4,6,8,10,12,14,-1,16,18,20,22,-1,24,-1,26,28,30,32,-1,34,-1,-1,36,-1,38,-1,40,42,-1,-1,-1,-1,44,-1,-1,-1,-1,-1,46,-1,48,-1,50,-1,-1,-1,-1,-1,-1,-1],"split_conditions":[3.32E0,5.4E0,2.3E0,3E0,8.2E0,2.4E-1,5.4E-1,3.317128E-1,3.16E0,6.9E0,1.55E-1,5.8E-1,3.0865407E-1,4.7E-1,-2.6111662E-1,1.9E0,2.95E-1,3.09E0,7.7E0,2.2586893E-1,3.15E0,-2.2145145E-1,1.1269655E-1,3.41E0,9.8922536E-2,4.4E-1,-4.161262E-1,6.2E-1,4.4E0,9.486653E-2,-1.3566436E-1,3.5242787E-1,3.2881204E-2,3.6E-1,-3.6223623E-1,-2.4323061E-1,4.759641E-2,-2.7300283E-1,4.651758E-2,3.2E0,1.8063048E-2,2.4E0,-3.2993913E-1,4.2E-1,1.6261701E-1,-1.7302617E-2,-3.177205E-1,-1.1008724E-1,2.251227E-1,-1.7237144E-3,-2.4290945E-1],"split_indices":[5,2,2,5,2,1,6,0,5,2,1,6,0,6,0,2,1,5,2,0,5,0,0,5,0,6,0,6,2,0,0,0,0,1,0,0,0,0,0,5,0,2,0,6,0,0,0,0,0,0,0],"split_type":[0,0,0,0,0,0,0,0,0,0,0,0,0,0,0,0,0,0,0,0,0,0,0,0,0,0,0,0,0,0,0,0,0,0,0,0,0,0,0,0,0,0,0,0,0,0,0,0,0,0,0],"sum_hessian":[4.9596447E1,3.623596E1,1.336049E1,2.1131268E1,1.510469E1,7.45133E0,5.90916E0,1.3575734E0,1.9773695E1,7.528181E0,7.576509E0,2.316605E0,5.134725E0,4.4684725E0,1.4406873E0,6.3313074E0,1.3442388E1,3.2164013E0,4.3117795E0,1.1728083E0,6.403701E0,1.3020498E0,1.0145553E0,2.526531E0,1.9419417E0,2.075879E0,4.2554283E0,7.641606E0,5.8007812E0,1.2872411E0,1.9291601E0,3.0442407E0,1.2675389E0,4.484221E0,1.9194798E0,1.1684217E0,1.3581091E0,1.0624772E0,1.0134017E0,6.1208935E0,1.5207121E0,4.4221783E0,1.3786032E0,3.2262309E0,1.2579901E0,1.7730367E0,4.347857E0,1.1946673E0,3.227511E0,1.6557105E0,1.5705204E0],"tree_param":{"num_deleted":"0","num_feature":"8","num_nodes":"51","size_leaf_vector":"1"}},{"base_weights":[-1.70702E-2,-6.705426E-2,3.4165588E-1,-2.178086E-1,2.8937552E-2,-7.949756E-2,7.2848374E-1,-1.17314905E-1,-3.4824693E-1,-2.8261235E-1,1.0043362E-1,-1.4493269E-1,9.641351E-2,5.2934146E-1,8.926421E-3,-4.823896E-1,-1.891707E-2,-2.5264847E-1,2.4168324E-3,2.1763697E-1,-2.019886E-1,-5.846854E-2,-2.9804567E-1,-9.614204E-2,1.7214356E-1,1.4551635E-1,-1.5133207E-1,4.0601084E-1,-2.994727E-2,1.984472E-1,-2.9382342E-1,3.934159E-2,-3.1669286E-1,6.154179E-1,-1.9335729E-1,-2.6138514E-1,1.9739585E-1,-2.354873E-2,1.955458E-1,-5.3203773E-2,2.2054784E-1,1.0493069E-1,3.8611373E-1,3.713132E-2,-1.9813636E-1,-1.8593772E-1,1.931937E-1],"categories":[],"categories_nodes":[],"categories_segments":[],"categories_sizes":[],"default_left":[0,0,0,0,0,0,0,0,0,0,0,0,0,0,0,0,0,0,0,0,0,0,0,0,0,0,0,0,0,0,0,0,0,0,0,0,0,0,0,0,0,0,0,0,0,0,0],"id":21,"left_children":[1,3,5,7,9,11,13,15,-1,17,19,-1,-1,-1,-1,21,23,-1,25,27,29,-1,-1,31,-1,-1,-1,33,35,37,-1,39,-1,41,43,-1,45,-1,-1,-1,-1,-1,-1,-1,-1,-1,-1],"loss_changes":[9.271407E-1,6.5892565E-1,1.0893937E0,7.6791006E-1,6.617903E-1,2.8119996E-1,7.785814E-1,5.58446E-1,0E0,3.5474965E-1,8.899027E-1,0E0,0E0,0E0,0E0,6.798273E-2,4.1136938E-1,0E0,3.9082265E-1,8.3680815E-1,1.2261513E0,0E0,0E0,8.9133227E-1,0E0,0E0,0E0,1.3879604E0,1.0635374E0,2.2051321E-1,0E0,6.586958E-1,0E0,3.296337E-1,2.1290463E-1,0E0,8.528513E-1,0E0,0E0,0E0,0E0,0E0,0E0,0E0,0E0,0E0,0E0],"parents":[2147483647,0,0,1,1,2,2,3,3,4,4,5,5,6,6,7,7,9,9,10,10,15,15,16,16,18,18,19,19,20,20,23,23,27,27,28,28,29,29,31,31,33,33,34,34,36,36],"right_children":[2,4,6,8,10,12,14,16,-1,18,20,-1,-1,-1,-1,22,24,-1,26,28,30,-1,-1,32,-1,-1,-1,34,36,38,-1,40,-1,42,44,-1,46,-1,-1,-1,-1,-1,-1,-1,-1,-1,-1],"split_conditions":[1.13E1,3E1,3.24E0,7.3E0,1.7E0,4.45E1,1.35E1,2.05E-1,-3.4824693E-1,3.31E0,3.31E0,-1.4493269E-1,9.641351E-2,5.2934146E-1,8.926421E-3,1.55E1,6.1E0,-2.5264847E-1,3.37E0,3.85E1,2.8E0,-5.846854E-2,-2.9804567E-1,4.6E0,1.7214356E-1,1.4551635E-1,-1.5133207E-1,3.15E-1,4.2E0,4.25E1,-2.9382342E-1,3.6E0,-3.1669286E-1,2.45E-1,4.4E0,-2.6138514E-1,3.11E0,-2.354873E-2,1.955458E-1,-5.3203773E-2,2.2054784E-1,1.0493069E-1,3.8611373E-1,3.713132E-2,-1.9813636E-1,-1.8593772E-1,1.931937E-1],"split_indices":[2,4,5,2,2,4,2,1,0,5,5,0,0,0,0,4,2,0,5,4,2,0,0,2,0,0,0,1,2,4,0,2,0,1,2,0,5,0,0,0,0,0,0,0,0,0,0],"split_type":[0,0,0,0,0,0,0,0,0,0,0,0,0,0,0,0,0,0,0,0,0,0,0,0,0,0,0,0,0,0,0,0,0,0,0,0,0,0,0,0,0,0,0,0,0,0,0],"sum_hessian":[4.9429546E1,4.4098095E1,5.33145E0,1.6661818E1,2.743628E1,2.9328446E0,2.3986053E0,1.4799859E1,1.8619587E0,4.569868E0,2.2866411E1,1.618308E0,1.3145368E0,1.3032587E0,1.0953466E0,2.3135834E0,1.2486276E1,2.13167E0,2.4381983E0,1.6681767E1,6.184644E0,1.0303512E0,1.2832321E0,1.0903296E1,1.5829791E0,1.2765709E0,1.1616273E0,9.110316E0,7.5714507E0,3.272344E0,2.9123003E0,9.4475565E0,1.4557401E0,6.73164E0,2.3786762E0,1.979946E0,5.5915046E0,1.7708011E0,1.5015429E0,7.4719944E0,1.9755622E0,2.5290582E0,4.202582E0,1.2992071E0,1.079469E0,1.1524543E0,4.43905E0],"tree_param":{"num_deleted":"0","num_feature":"8","num_nodes":"47","size_leaf_vector":"1"}},{"base_weights":[-3.2910143E-4,-2.0864493E-1,8.446101E-2,7.647967E-2,-4.1661528E-1,3.6190236E-1,-8.86627E-3,2.4409297E-1,-1.3136394E-1,-3.7808433E-1,1.1023432E-1,7.4800014E-1,9.9372335E-2,-1.2288601E-1,3.1614575E-1,1.3486515E-1,-2.2632578E-1,-9.902567E-2,2.3830016E-1,4.679766E-1,1.1301077E-1,-1.1421238E-1,3.0339655E-1,2.3411125E-1,-1.9490261E-1,5.8857805E-1,-1.4591311E-1,1.6142981E-1,-7.756476E-2,2.683721E-1,-5.720236E-2,-6.220934E-2,2.3218215E-1,-3.0320495E-1,-6.6021144E-2,4.114689E-1,2.6470703E-1,-3.8173327E-1,2.6968751E-2,-4.0030316E-2,2.140995E-1,3.9240565E-2,-3.06207E-1,-6.274294E-2,1.2312495E-1],"categories":[],"categories_nodes":[],"categories_segments":[],"categories_sizes":[],"default_left":[0,0,0,0,0,0,0,0,0,0,0,0,0,0,0,0,0,0,0,0,0,0,0,0,0,0,0,0,0,0,0,0,0,0,0,0,0,0,0,0,0,0,0,0,0],"id":22,"left_children":[1,3,5,7,9,11,13,-1,15,-1,17,19,21,23,25,27,-1,-1,-1,-1,-1,-1,29,31,33,35,-1,-1,-1,-1,-1,-1,-1,-1,37,-1,39,41,43,-1,-1,-1,-1,-1,-1],"loss_changes":[8.523449E-1,8.595958E-1,8.9130557E-1,6.4021826E-1,1.5550559E0,8.0320287E-1,1.0261259E0,0E0,5.111177E-1,0E0,5.5711716E-1,1.1719799E-1,4.9107608E-1,5.7120335E-1,1.3641251E0,2.4895802E-1,0E0,0E0,0E0,0E0,0E0,0E0,4.822501E-1,3.7856793E-1,8.91096E-1,1.8465316E-1,0E0,0E0,0E0,0E0,0E0,0E0,0E0,0E0,4.3574125E-1,0E0,2.4286237E-1,4.051088E-1,4.3636018E-1,0E0,0E0,0E0,0E0,0E0,0E0],"parents":[2147483647,0,0,1,1,2,2,3,3,4,4,5,5,6,6,8,8,10,10,11,11,12,12,13,13,14,14,15,15,22,22,23,23,24,24,25,25,34,34,36,36,37,37,38,38],"right_children":[2,4,6,8,10,12,14,-1,16,-1,18,20,22,24,26,28,-1,-1,-1,-1,-1,-1,30,32,34,36,-1,-1,-1,-1,-1,-1,-1,-1,38,-1,40,42,44,-1,-1,-1,-1,-1,-1],"split_conditions":[1.11E1,2.15E-1,3.1E0,9E0,3.32E0,1.1733334E1,3.36E0,2.4409297E-1,1.75E-1,-3.7808433E-1,4.5E1,2.1E1,3E1,2E-1,3.44E0,3.2E0,-2.2632578E-1,-9.902567E-2,2.3830016E-1,4.679766E-1,1.1301077E-1,-1.1421238E-1,2.85E-1,3.25E0,2.45E-1,1.194E1,-1.4591311E-1,1.6142981E-1,-7.756476E-2,2.683721E-1,-5.720236E-2,-6.220934E-2,2.3218215E-1,-3.0320495E-1,2.6E1,4.114689E-1,2.75E-1,1.225E1,1.26E1,-4.0030316E-2,2.140995E-1,3.9240565E-2,-3.06207E-1,-6.274294E-2,1.2312495E-1],"split_indices":[7,1,5,7,5,7,5,0,1,0,4,4,4,1,5,5,0,0,0,0,0,0,1,5,1,7,0,0,0,0,0,0,0,0,4,0,1,7,7,0,0,0,0,0,0],"split_type":[0,0,0,0,0,0,0,0,0,0,0,0,0,0,0,0,0,0,0,0,0,0,0,0,0,0,0,0,0,0,0,0,0,0,0,0,0,0,0,0,0,0,0,0,0],"sum_hessian":[4.6257923E1,1.2959001E1,3.3298923E1,5.732321E0,7.2266793E0,7.6573987E0,2.5641525E1,1.4705579E0,4.261763E0,4.1297803E0,3.096899E0,2.3508503E0,5.306548E0,1.9442625E1,6.1989E0,2.6478808E0,1.6138823E0,1.9312384E0,1.1656606E0,1.1453481E0,1.2055023E0,1.9898862E0,3.316662E0,2.885914E0,1.6556711E1,4.302741E0,1.8961595E0,1.5377052E0,1.1101755E0,1.9454273E0,1.3712348E0,1.3083341E0,1.57758E0,3.0650618E0,1.349165E1,1.6023238E0,2.7004173E0,2.3631976E0,1.1128452E1,1.0327948E0,1.6676223E0,1.0093338E0,1.3538638E0,6.8168178E0,4.311634E0],"tree_param":{"num_deleted":"0","num_feature":"8","num_nodes":"45","size_leaf_vector":"1"}},{"base_weights":[-4.623213E-2,-8.997447E-2,2.7686852E-1,-2.8518748E-2,-3.7334216E-1,5.5532664E-1,-7.37325E-2,-3.2268038E-1,1.7475434E-2,1.8850589E-1,-5.74708E-1,7.1749255E-2,3.5958016E-1,-2.2275102E-1,1.4101252E-1,-1.7137644E-1,4.794103E-2,-2.56815E-1,-3.813273E-1,9.714687E-3,2.054923E-1,-2.5900316E-1,9.6178144E-2,3.7221012E-1,-3.58529E-2,-5.0044894E-2,3.1239524E-1,-1.2189067E-1,2.2007933E-2],"categories":[],"categories_nodes":[],"categories_segments":[],"categories_sizes":[],"default_left":[0,0,0,0,0,0,0,0,0,0,0,0,0,0,0,0,0,0,0,0,0,0,0,0,0,0,0,0,0],"id":23,"left_children":[1,3,5,7,9,11,13,-1,15,-1,17,-1,-1,-1,-1,-1,19,21,-1,23,-1,-1,-1,25,27,-1,-1,-1,-1],"loss_changes":[6.444784E-1,6.748824E-1,5.752115E-1,9.5978695E-1,1.264237E0,1.10500276E-1,5.627915E-1,0E0,3.6856145E-1,0E0,1.5439606E-1,0E0,0E0,0E0,0E0,0E0,4.1874325E-1,5.320676E-1,0E0,4.8549014E-1,0E0,0E0,0E0,4.537869E-1,4.4755834E-1,0E0,0E0,0E0,0E0],"parents":[2147483647,0,0,1,1,2,2,3,3,4,4,5,5,6,6,8,8,10,10,16,16,17,17,19,19,23,23,24,24],"right_children":[2,4,6,8,10,12,14,-1,16,-1,18,-1,-1,-1,-1,-1,20,22,-1,24,-1,-1,-1,26,28,-1,-1,-1,-1],"split_conditions":[4.2E-1,3.25E-1,3.21E0,2.5E-2,2.5E-2,3.5E-2,3.27E0,-3.2268038E-1,1.5E-1,1.8850589E-1,3E1,7.1749255E-2,3.5958016E-1,-2.2275102E-1,1.4101252E-1,-1.7137644E-1,5.5E-2,2.7E1,-3.813273E-1,1.55E1,2.054923E-1,-2.5900316E-1,9.6178144E-2,1.4E1,3.1E-2,-5.0044894E-2,3.1239524E-1,-1.2189067E-1,2.2007933E-2],"split_indices":[1,1,5,3,3,3,5,0,1,0,4,0,0,0,0,0,3,4,0,4,0,0,0,4,3,0,0,0,0],"split_type":[0,0,0,0,0,0,0,0,0,0,0,0,0,0,0,0,0,0,0,0,0,0,0,0,0,0,0,0,0],"sum_hessian":[4.2837788E1,3.8365303E1,4.4724827E0,3.2432175E1,5.9331274E0,2.167255E0,2.305228E0,1.346222E0,3.1085953E1,1.0707809E0,4.8623466E0,1.1506782E0,1.0165766E0,1.0038908E0,1.3013371E0,1.6247112E0,2.9461243E1,2.6858776E0,2.176469E0,2.758361E1,1.8776319E0,1.6014132E0,1.0844643E0,2.279736E0,2.5303875E1,1.0047276E0,1.2750086E0,6.4527264E0,1.8851149E1],"tree_param":{"num_deleted":"0","num_feature":"8","num_nodes":"29","size_leaf_vector":"1"}},{"base_weights":[1.2432939E-1,2.2249302E-1,-5.0632026E-2,4.2652765E-1,1.00024216E-1,-2.938002E-1,2.8388998E-2,-2.2234792E-1,6.2910104E-1,-2.1326412E-1,2.985952E-1,1.3930032E-1,-2.4958251E-1,-2.0038283E-1,3.649019E-2,-3.5586346E-2,7.820907E-1,-3.2200474E-1,7.7171475E-2,2.9731476E-1,1.5575723E-1,-1.12094805E-1,2.7897716E-1,-2.8673902E-1,1.21027336E-1,3.9396977E-1,6.2401205E-1,-5.4260034E-2,-3.393997E-1,-1.0005025E-1,2.38666E-1,-2.5768253E-1,2.5253895E-1,3.9065138E-1,-1.181524E-1,3.4139058E-1,4.070713E-3,-1.2839758E-1,1.1289288E-1,6.004812E-1,1.480997E-2,2.229272E-1,-2.8697446E-2,5.339567E-1,-1.300617E-2,5.9122667E-2,-5.030311E-2,1.480457E-1,-5.6115393E-2,3.7707272E-1,6.544442E-2,-1.8099931E-1,1.3399303E-1,-2.4657084E-2,3.4187922E-1],"categories":[],"categories_nodes":[],"categories_segments":[],"categories_sizes":[],"default_left":[0,0,0,0,0,0,0,0,0,0,0,0,0,0,0,0,0,0,0,0,0,0,0,0,0,0,0,0,0,0,0,0,0,0,0,0,0,0,0,0,0,0,0,0,0,0,0,0,0,0,0,0,0,0,0],"id":24,"left_children":[1,3,5,7,9,-1,11,13,15,17,19,21,23,-1,-1,-1,25,27,-1,-1,29,31,33,-1,-1,35,-1,37,-1,-1,39,-1,41,43,-1,-1,45,-1,47,49,51,-1,-1,53,-1,-1,-1,-1,-1,-1,-1,-1,-1,-1,-1],"loss_changes":[8.183425E-1,7.141676E-1,7.678898E-1,1.5929236E0,1.3224053E0,0E0,5.399722E-1,2.0676039E-1,9.861841E-1,3.8678846E-1,4.4866133E-1,4.6510392E-1,9.4006866E-1,0E0,0E0,0E0,8.124552E-1,6.158033E-1,0E0,0E0,3.4248316E-1,8.839224E-1,5.6583005E-1,0E0,0E0,6.0480785E-1,0E0,1.9791672E-1,0E0,0E0,6.842506E-1,0E0,2.270924E-1,4.4022024E-1,0E0,0E0,5.135987E-2,0E0,1.7462203E-1,1.3550103E-1,6.9918585E-1,0E0,0E0,5.019803E-1,0E0,0E0,0E0,0E0,0E0,0E0,0E0,0E0,0E0,0E0,0E0],"parents":[2147483647,0,0,1,1,2,2,3,3,4,4,6,6,7,7,8,8,9,9,10,10,11,11,12,12,16,16,17,17,20,20,21,21,22,22,25,25,27,27,30,30,32,32,33,33,36,36,38,38,39,39,40,40,43,43],"right_children":[2,4,6,8,10,-1,12,14,16,18,20,22,24,-1,-1,-1,26,28,-1,-1,30,32,34,-1,-1,36,-1,38,-1,-1,40,-1,42,44,-1,-1,46,-1,48,50,52,-1,-1,54,-1,-1,-1,-1,-1,-1,-1,-1,-1,-1,-1],"split_conditions":[5.2E-1,2.5E0,1.6E0,3.9E-1,5.4E0,-2.938002E-1,7E0,2.75E-1,6.15E0,4.15E-1,6.3E0,2.7E0,7.7E0,-2.0038283E-1,3.649019E-2,-3.5586346E-2,1.95E0,2.9E-1,7.7171475E-2,2.9731476E-1,6.9E0,6.4E-1,7.85E0,-2.8673902E-1,1.21027336E-1,1.4E0,6.2401205E-1,3.8E0,-3.393997E-1,-1.0005025E-1,7.6E0,-2.5768253E-1,7E-1,3.25E-1,-1.181524E-1,3.4139058E-1,6.9E0,-1.2839758E-1,4.5E0,7.1E0,7E0,2.229272E-1,-2.8697446E-2,6.1E0,-1.300617E-2,5.9122667E-2,-5.030311E-2,1.480457E-1,-5.6115393E-2,3.7707272E-1,6.544442E-2,-1.8099931E-1,1.3399303E-1,-2.4657084E-2,3.4187922E-1],"split_indices":[6,2,2,6,2,0,0,1,0,1,0,2,0,0,0,0,2,1,0,0,2,6,2,0,0,2,0,2,0,0,2,0,6,1,0,0,0,0,2,0,0,0,0,0,0,0,0,0,0,0,0,0,0,0,0],"split_type":[0,0,0,0,0,0,0,0,0,0,0,0,0,0,0,0,0,0,0,0,0,0,0,0,0,0,0,0,0,0,0,0,0,0,0,0,0,0,0,0,0,0,0,0,0,0,0,0,0,0,0,0,0,0,0],"sum_hessian":[4.5991814E1,2.9287907E1,1.6703907E1,1.00544E1,1.9233507E1,1.3171985E0,1.5386708E1,2.3688788E0,7.685522E0,7.432751E0,1.18007555E1,1.1354931E1,4.0317774E0,1.2541732E0,1.1147057E0,1.4738973E0,6.2116246E0,5.8317366E0,1.6010145E0,2.8113055E0,8.9894495E0,4.1261024E0,7.2288284E0,2.330171E0,1.7016062E0,4.3956294E0,1.8159952E0,3.9898002E0,1.8419366E0,1.4315414E0,7.5579085E0,1.762961E0,2.3631413E0,6.1400075E0,1.0888209E0,2.0936315E0,2.301998E0,1.5614908E0,2.4283094E0,2.2457278E0,5.3121805E0,1.1852912E0,1.1778501E0,4.359215E0,1.7807927E0,1.0390499E0,1.262948E0,1.1650165E0,1.2632928E0,1.235484E0,1.0102438E0,1.9621025E0,3.350078E0,1.0278728E0,3.3313417E0],"tree_param":{"num_deleted":"0","num_feature":"8","num_nodes":"55","size_leaf_vector":"1"}},{"base_weights":[-1.4425468E-2,2.2638084E-2,-4.145239E-1,-2.4840479E-1,5.1413454E-2,-1.509398E-2,-2.7620527E-1,2.7577466E-1,-4.5276093E-3,-5.467821E-2,3.9661008E-1,-4.9828142E-2,2.1286227E-1,4.8729822E-1,2.564162E-3,-3.2129902E-1,1.3932432E-2,-1.0073688E-3,3.002037E-1,3.3625168E-1,9.319285E-4,2.702153E-2,-2.6926875E-1,1.5328403E-1,-1.8839543E-1,-1.06909476E-1,9.568023E-2,1.4358382E-1,-8.414348E-2,-1.3541716E-1,1.2542348E-1],"categories":[],"categories_nodes":[],"categories_segments":[],"categories_sizes":[],"default_left":[0,0,0,0,0,0,0,0,0,0,0,0,0,0,0,0,0,0,0,0,0,0,0,0,0,0,0,0,0,0,0],"id":25,"left_children":[1,3,5,-1,7,-1,-1,9,11,-1,13,15,17,19,-1,21,23,25,-1,-1,-1,-1,-1,27,29,-1,-1,-1,-1,-1,-1],"loss_changes":[6.314083E-1,6.135425E-1,1.7453343E-1,0E0,4.8044118E-1,0E0,0E0,3.9872336E-1,3.2124606E-1,0E0,2.1152425E-1,4.7034237E-1,4.6718958E-1,4.3783188E-1,0E0,4.498973E-1,6.7041457E-1,2.3028897E-1,0E0,0E0,0E0,0E0,0E0,6.5215456E-1,4.202167E-1,0E0,0E0,0E0,0E0,0E0,0E0],"parents":[2147483647,0,0,1,1,2,2,4,4,7,7,8,8,10,10,11,11,12,12,13,13,15,15,16,16,17,17,23,23,24,24],"right_children":[2,4,6,-1,8,-1,-1,10,12,-1,14,16,18,20,-1,22,24,26,-1,-1,-1,-1,-1,28,30,-1,-1,-1,-1,-1,-1],"split_conditions":[1.305E1,2.98E0,3.18E0,-2.4840479E-1,3.1E0,-1.509398E-2,-2.7620527E-1,1.105E1,1.27E1,-5.467821E-2,3.8E1,3.17E0,4E-2,3.5E-2,2.564162E-3,1.105E1,3.33E0,1.29E1,3.002037E-1,3.3625168E-1,9.319285E-4,2.702153E-2,-2.6926875E-1,4.1E-2,6.4E1,-1.06909476E-1,9.568023E-2,1.4358382E-1,-8.414348E-2,-1.3541716E-1,1.2542348E-1],"split_indices":[7,5,5,0,5,0,0,7,7,0,4,5,3,3,0,7,5,7,0,0,0,0,0,3,4,0,0,0,0,0,0],"split_type":[0,0,0,0,0,0,0,0,0,0,0,0,0,0,0,0,0,0,0,0,0,0,0,0,0,0,0,0,0,0,0],"sum_hessian":[4.0946285E1,3.8338203E1,2.608082E0,1.1585827E0,3.717962E1,1.0104777E0,1.5976044E0,6.635814E0,3.0543804E1,1.6074591E0,5.028355E0,2.5914444E1,4.629361E0,3.883886E0,1.1444693E0,4.1606517E0,2.1753792E1,3.6258242E0,1.0035372E0,2.5323632E0,1.3515228E0,1.800682E0,2.3599699E0,1.3025196E1,8.728595E0,1.6684974E0,1.9573269E0,9.271897E0,3.7532985E0,7.6720734E0,1.0565219E0],"tree_param":{"num_deleted":"0","num_feature":"8","num_nodes":"31","size_leaf_vector":"1"}},{"base_weights":[3.760657E-2,-3.397074E-1,7.9625815E-2,-2.2165293E-3,-2.56617E-1,1.1148475E-1,-2.2385329E-1,5.5830874E-2,3.0500266E-1,-4.3007174E-1,1.02280125E-1,-3.1519374E-3,2.7715755E-1,1.347328E-1,2.841141E-1,-2.8190613E-2,-2.9912257E-1,8.72484E-2,-2.1923545E-1,-6.638559E-2,4.159953E-1,3.700587E-1,-1.0964374E-1,1.7409356E-1,-1.5179487E-1,-4.9632213E-1,9.183332E-2,6.4098656E-1,-2.1496145E-2,1.4041069E-2,2.793282E-1,-9.5413476E-2,1.4482865E-1,7.886029E-2,-2.640061E-1,-4.4024967E-2,-3.4121105E-1,-7.416196E-2,2.2932734E-1,4.021311E-1,1.2135766E-1],"categories":[],"categories_nodes":[],"categories_segments":[],"categories_sizes":[],"default_left":[0,0,0,0,0,0,0,0,0,0,0,0,0,0,0,0,0,0,0,0,0,0,0,0,0,0,0,0,0,0,0,0,0,0,0,0,0,0,0,0,0],"id":26,"left_children":[1,3,5,-1,-1,7,9,11,13,15,-1,17,19,21,-1,-1,-1,23,25,-1,27,29,-1,31,33,35,37,39,-1,-1,-1,-1,-1,-1,-1,-1,-1,-1,-1,-1,-1],"loss_changes":[7.32301E-1,2.6809955E-1,4.19776E-1,0E0,0E0,3.8817757E-1,4.600972E-1,3.9830613E-1,2.900346E-1,1.6521889E-1,0E0,5.0800306E-1,4.204647E-1,6.0412407E-1,0E0,0E0,0E0,4.0758112E-1,7.0638496E-1,0E0,5.4758334E-1,2.515152E-1,0E0,6.4286274E-1,7.1522504E-1,2.598554E-1,4.6055147E-1,2.8624773E-2,0E0,0E0,0E0,0E0,0E0,0E0,0E0,0E0,0E0,0E0,0E0,0E0,0E0],"parents":[2147483647,0,0,1,1,2,2,5,5,6,6,7,7,8,8,9,9,11,11,12,12,13,13,17,17,18,18,20,20,21,21,23,23,24,24,25,25,26,26,27,27],"right_children":[2,4,6,-1,-1,8,10,12,14,16,-1,18,20,22,-1,-1,-1,24,26,-1,28,30,-1,32,34,36,38,40,-1,-1,-1,-1,-1,-1,-1,-1,-1,-1,-1,-1,-1],"split_conditions":[1.04E1,9E0,1.3E1,-2.2165293E-3,-2.56617E-1,3.45E-1,3.3E0,3.37E0,1.27E1,3.17E0,1.02280125E-1,3.95E1,1.0933333E1,1.22E1,2.841141E-1,-2.8190613E-2,-2.9912257E-1,2.85E-1,4.85E1,-6.638559E-2,1.194E1,1.195E1,-1.0964374E-1,2.05E-1,1.25E1,2.25E-1,1.2333333E1,3.2E1,-2.1496145E-2,1.4041069E-2,2.793282E-1,-9.5413476E-2,1.4482865E-1,7.886029E-2,-2.640061E-1,-4.4024967E-2,-3.4121105E-1,-7.416196E-2,2.2932734E-1,4.021311E-1,1.2135766E-1],"split_indices":[7,7,7,0,0,1,5,5,7,5,0,4,7,7,0,0,0,1,4,0,7,7,0,1,7,1,7,4,0,0,0,0,0,0,0,0,0,0,0,0,0],"split_type":[0,0,0,0,0,0,0,0,0,0,0,0,0,0,0,0,0,0,0,0,0,0,0,0,0,0,0,0,0,0,0,0,0,0,0,0,0,0,0,0,0],"sum_hessian":[4.3482876E1,3.647289E0,3.9835587E1,1.5936711E0,2.053618E0,3.6623528E1,3.2120569E0,2.9444174E1,7.1793547E0,2.1657126E0,1.0463443E0,2.4026855E1,5.417317E0,5.2774444E0,1.9019104E0,1.0865642E0,1.0791484E0,1.7360271E1,6.6665854E0,1.3816344E0,4.0356827E0,3.1429472E0,2.1344972E0,1.2933278E1,4.426993E0,3.2109082E0,3.455677E0,2.4420772E0,1.5936055E0,1.525578E0,1.6173693E0,2.9540088E0,9.979269E0,2.7474382E0,1.6795549E0,1.4665891E0,1.7443191E0,2.4483788E0,1.0072982E0,1.009031E0,1.4330462E0],"tree_param":{"num_deleted":"0","num_feature":"8","num_nodes":"41","size_leaf_vector":"1"}},{"base_weights":[3.2672595E-2,-3.8698316E-2,1.939856E-1,-2.070644E-1,1.4535354E-1,-2.83699E-1,3.256156E-1,-2.599866E-1,1.2414772E-1,4.9976262E-1,-4.901435E-2,3.404788E-1,9.672334E-2,9.255584E-2,-3.0810907E-1,3.2173887E-1,7.816504E-2,-1.8873355E-1,2.7738917E-1,3.170887E-1,-2.4837865E-1,8.5290335E-2,-3.7709278E-1,-3.658116E-1,3.7263155E-2,-3.3399254E-2,2.5860742E-1,-3.0488867E-1,-2.1765985E-1,3.935661E-2,-3.1972924E-1,-3.265619E-1,3.1477147E-1,9.036729E-2,-1.1635245E-1,1.7030971E-1,-1.9252953E-1,7.109647E-2,-4.1958626E-2,-3.0329142E-2,-2.2710213E-1],"categories":[],"categories_nodes":[],"categories_segments":[],"categories_sizes":[],"default_left":[0,0,0,0,0,0,0,0,0,0,0,0,0,0,0,0,0,0,0,0,0,0,0,0,0,0,0,0,0,0,0,0,0,0,0,0,0,0,0,0,0],"id":27,"left_children":[1,3,5,7,9,-1,11,13,-1,15,17,-1,19,-1,21,-1,-1,23,-1,25,-1,-1,27,29,31,33,-1,-1,35,37,-1,39,-1,-1,-1,-1,-1,-1,-1,-1,-1],"loss_changes":[4.7226906E-1,9.231694E-1,1.4423693E0,4.372086E-1,1.0134263E0,0E0,8.5600114E-1,3.6423242E-1,0E0,1.5477598E-1,9.6368074E-1,0E0,1.21152E0,0E0,5.041133E-1,0E0,0E0,3.7439707E-1,0E0,4.7231215E-1,0E0,0E0,3.106693E-1,5.958205E-1,1.2545588E0,1.8277812E-1,0E0,0E0,9.393164E-1,5.0177347E-2,0E0,9.714627E-2,0E0,0E0,0E0,0E0,0E0,0E0,0E0,0E0,0E0],"parents":[2147483647,0,0,1,1,2,2,3,3,4,4,6,6,7,7,9,9,10,10,12,12,14,14,17,17,19,19,22,22,23,23,24,24,25,25,28,28,29,29,31,31],"right_children":[2,4,6,8,10,-1,12,14,-1,16,18,-1,20,-1,22,-1,-1,24,-1,26,-1,-1,28,30,32,34,-1,-1,36,38,-1,40,-1,-1,-1,-1,-1,-1,-1,-1,-1],"split_conditions":[4.2E-2,3.25E0,1.7E0,1.32E1,3E-2,-2.83699E-1,2.5E0,1.2E0,1.2414772E-1,2.3E0,9E0,3.404788E-1,3.27E0,9.255584E-2,1.0533334E1,3.2173887E-1,7.816504E-2,1.225E1,2.7738917E-1,1.1E1,-2.4837865E-1,8.5290335E-2,4E0,1.7E0,3.7E-2,9E0,2.5860742E-1,-3.0488867E-1,4.8E0,1.105E1,-3.1972924E-1,3.29E0,3.1477147E-1,9.036729E-2,-1.1635245E-1,1.7030971E-1,-1.9252953E-1,7.109647E-2,-4.1958626E-2,-3.0329142E-2,-2.2710213E-1],"split_indices":[3,5,2,7,3,0,2,2,0,2,2,0,5,0,7,0,0,7,0,7,0,0,2,2,3,7,0,0,2,7,0,5,0,0,0,0,0,0,0,0,0],"split_type":[0,0,0,0,0,0,0,0,0,0,0,0,0,0,0,0,0,0,0,0,0,0,0,0,0,0,0,0,0,0,0,0,0,0,0,0,0,0,0,0,0],"sum_hessian":[3.936827E1,2.7819838E1,1.1548434E1,1.4463737E1,1.3356101E1,1.214262E0,1.0334172E1,1.3342155E1,1.121581E0,4.1740136E0,9.182088E0,3.2749646E0,7.0592074E0,1.0240204E0,1.2318135E1,2.3267012E0,1.8473127E0,8.014851E0,1.1672372E0,5.487396E0,1.5718117E0,1.3660579E0,1.0952077E1,4.1469107E0,3.86794E0,2.29725E0,3.1901457E0,3.304564E0,7.647513E0,2.0168664E0,2.130044E0,2.6739962E0,1.193944E0,1.1523476E0,1.1449026E0,1.5254242E0,6.122089E0,1.0159111E0,1.0009553E0,1.3457533E0,1.3282428E0],"tree_param":{"num_deleted":"0","num_feature":"8","num_nodes":"41","size_leaf_vector":"1"}},{"base_weights":[-2.3431601E-2,3.0489507E-1,-8.171961E-2,-1.2938726E-2,5.603902E-1,-3.3946368E-1,-8.2004685E-3,-6.474817E-2,6.0750682E-2,8.98927E-2,3.2946512E-1,-4.2920145E-1,-1.5785765E-2,-2.862871E-1,7.5047925E-2,2.1494085E-2,-3.3038026E-1,-3.9727125E-1,8.9613155E-2,2.3868795E-1,-5.8726277E-2,7.473146E-2,-5.811937E-2,-7.048626E-2,-2.9416263E-1,2.893966E-1,-3.8731087E-2,-2.4496678E-1,2.7103898E-1,-1.2222659E-1,8.169629E-2,4.1060147E-1,1.8255709E-2,-5.2778777E-2,-5.064336E-1,2.8933078E-1,-1.0405558E-1,-1.8470466E-2,2.7783325E-1,-1.6726191E-1,1.459377E-1,5.9230197E-2,-1.8597972E-1,-3.1776226E-1,-7.246512E-2,1.383343E-1,-2.0451152E-1],"categories":[],"categories_nodes":[],"categories_segments":[],"categories_sizes":[],"default_left":[0,0,0,0,0,0,0,0,0,0,0,0,0,0,0,0,0,0,0,0,0,0,0,0,0,0,0,0,0,0,0,0,0,0,0,0,0,0,0,0,0,0,0,0,0,0,0],"id":28,"left_children":[1,3,5,7,9,11,13,-1,-1,-1,-1,15,-1,17,19,21,-1,23,-1,25,27,-1,-1,29,-1,31,-1,33,35,-1,-1,37,39,41,43,-1,45,-1,-1,-1,-1,-1,-1,-1,-1,-1,-1],"loss_changes":[8.114285E-1,5.275726E-1,6.73519E-1,7.579465E-2,1.5601516E-2,2.0461881E-1,6.8807924E-1,0E0,0E0,0E0,0E0,6.440097E-1,0E0,4.246716E-1,5.1646817E-1,7.0544645E-2,0E0,3.2285643E-1,0E0,1.9109035E-1,8.912856E-1,0E0,0E0,1.7376435E-1,0E0,2.9741848E-1,0E0,4.3099654E-1,6.743572E-1,0E0,0E0,4.3378592E-1,4.753295E-1,3.9201877E-1,8.254641E-2,0E0,4.9002928E-1,0E0,0E0,0E0,0E0,0E0,0E0,0E0,0E0,0E0,0E0],"parents":[2147483647,0,0,1,1,2,2,3,3,4,4,5,5,6,6,11,11,13,13,14,14,15,15,17,17,19,19,20,20,23,23,25,25,27,27,28,28,31,31,32,32,33,33,34,34,36,36],"right_children":[2,4,6,8,10,12,14,-1,-1,-1,-1,16,-1,18,20,22,-1,24,-1,26,28,-1,-1,30,-1,32,-1,34,36,-1,-1,38,40,42,44,-1,46,-1,-1,-1,-1,-1,-1,-1,-1,-1,-1],"split_conditions":[3.5E-1,3.25E-1,6.1E0,3.4E-1,6.7E0,4.6E1,2.6E1,-6.474817E-2,6.0750682E-2,8.98927E-2,3.2946512E-1,5.6E0,-1.5785765E-2,4.7E-1,2.45E-1,3.1E-1,-3.3038026E-1,1.55E1,8.9613155E-2,7.5E0,5.6E-1,7.473146E-2,-5.811937E-2,1.5E1,-2.9416263E-1,5.2E-1,-3.8731087E-2,4.7E-1,3.3E1,-1.2222659E-1,8.169629E-2,6.8E0,4.25E1,3.65E-1,7.1E0,2.8933078E-1,6.3E-1,-1.8470466E-2,2.7783325E-1,-1.6726191E-1,1.459377E-1,5.9230197E-2,-1.8597972E-1,-3.1776226E-1,-7.246512E-2,1.383343E-1,-2.0451152E-1],"split_indices":[6,1,0,6,0,4,4,0,0,0,0,0,0,1,1,1,0,4,0,0,6,0,0,4,0,6,0,6,4,0,0,0,4,1,0,0,6,0,0,0,0,0,0,0,0,0,0],"split_type":[0,0,0,0,0,0,0,0,0,0,0,0,0,0,0,0,0,0,0,0,0,0,0,0,0,0,0,0,0,0,0,0,0,0,0,0,0,0,0,0,0,0,0,0,0,0,0],"sum_hessian":[4.0097965E1,5.4075117E0,3.4690456E1,2.8328402E0,2.5746715E0,6.8962307E0,2.7794224E1,1.5370302E0,1.2958101E0,1.110382E0,1.4642894E0,5.0347977E0,1.8614334E0,5.8416305E0,2.1952593E1,2.0167222E0,3.0180755E0,4.835406E0,1.006225E0,9.521323E0,1.2431271E1,1.0012687E0,1.0154535E0,2.2890587E0,2.546347E0,8.278174E0,1.2431488E0,8.108824E0,4.322447E0,1.2867317E0,1.0023271E0,5.3653975E0,2.9127765E0,5.366269E0,2.7425544E0,2.0766423E0,2.2458043E0,1.4958566E0,3.8695412E0,1.1751113E0,1.737665E0,3.9018195E0,1.4644498E0,1.4623518E0,1.2802026E0,1.040112E0,1.2056924E0],"tree_param":{"num_deleted":"0","num_feature":"8","num_nodes":"47","size_leaf_vector":"1"}},{"base_weights":[3.2852188E-2,1.02822796E-1,-1.9342019E-1,3.5531923E-2,3.565513E-1,1.7588953E-2,-2.6467842E-1,2.232477E-1,-2.9373428E-2,5.26376E-1,1.782014E-2,-9.922444E-2,9.846172E-2,-4.5015618E-1,-2.6893163E-2,3.8985705E-1,-4.4075344E-2,3.89282E-2,-4.0050822E-1,3.1102514E-1,9.177404E-2,-5.038645E-2,6.571613E-2,-5.172694E-2,-3.1516543E-1,-1.3858065E-1,1.1440328E-1,-2.4426182E-1,2.1104273E-1,-1.8297371E-1,1.415412E-1,-2.4673457E-1,-5.629162E-2,2.4060531E-1,-1.006423E-1,-2.9786277E-1,6.167929E-2,-1.2458413E-1,2.2406173E-1,-1.4190537E-1,1.822675E-1,2.8091553E-1,4.8123445E-2],"categories":[],"categories_nodes":[],"categories_segments":[],"categories_sizes":[],"default_left":[0,0,0,0,0,0,0,0,0,0,0,0,0,0,0,0,0,0,0,0,0,0,0,0,0,0,0,0,0,0,0,0,0,0,0,0,0,0,0,0,0,0,0],"id":29,"left_children":[1,3,5,7,9,11,13,15,17,19,21,-1,-1,23,25,-1,27,29,31,-1,-1,-1,-1,-1,-1,-1,-1,-1,33,35,37,-1,-1,-1,-1,-1,39,-1,41,-1,-1,-1,-1],"loss_changes":[6.5009904E-1,5.175745E-1,1.5123954E-1,3.1915736E-1,3.587348E-1,1.7075762E-1,3.1205845E-1,1.0322666E0,5.2127546E-1,2.4477124E-2,5.598265E-2,0E0,0E0,1.8875813E-1,3.375892E-1,0E0,7.242232E-1,4.3028414E-1,2.980578E-2,0E0,0E0,0E0,0E0,0E0,0E0,0E0,0E0,0E0,5.6234115E-1,6.47862E-1,4.6554688E-1,0E0,0E0,0E0,0E0,0E0,5.9584504E-1,0E0,4.2160863E-1,0E0,0E0,0E0,0E0],"parents":[2147483647,0,0,1,1,2,2,3,3,4,4,5,5,6,6,7,7,8,8,9,9,10,10,13,13,14,14,16,16,17,17,18,18,28,28,29,29,30,30,36,36,38,38],"right_children":[2,4,6,8,10,12,14,16,18,20,22,-1,-1,24,26,-1,28,30,32,-1,-1,-1,-1,-1,-1,-1,-1,-1,34,36,38,-1,-1,-1,-1,-1,40,-1,42,-1,-1,-1,-1],"split_conditions":[7.15E0,7E0,2.1E0,5.9E0,3.2E0,2.35E-1,7E0,3.21E0,3.75E-1,7.1E0,3.32E0,-9.922444E-2,9.846172E-2,7.6E0,3.14E0,3.8985705E-1,3.36E0,2.2E0,4.95E-1,3.1102514E-1,9.177404E-2,-5.038645E-2,6.571613E-2,-5.172694E-2,-3.1516543E-1,-1.3858065E-1,1.1440328E-1,-2.4426182E-1,2.3E0,6.4E0,2.05E-1,-2.4673457E-1,-5.629162E-2,